{"learner":{"attributes":{"best_iteration":"55","best_score":"11.418749424556815","scikit_learn":"{\"_estimator_type\": \"regressor\"}"},"feature_names":["Category Name_code","day_of_week","is_weekend","month","week_of_year","lag_1","lag_7","lag_14","rolling_mean_7","rolling_mean_30","avg_discount_rate","late_delivery_risk"],"feature_types":["int","int","int","int","int","float","float","float","float","float","float","float"],"gradient_booster":{"model":{"cats":{"enc":[],"feature_segments":[],"sorted_idx":[]},"gbtree_model_param":{"num_parallel_tree":"1","num_trees":"86"},"iteration_indptr":[0,1,2,3,4,5,6,7,8,9,10,11,12,13,14,15,16,17,18,19,20,21,22,23,24,25,26,27,28,29,30,31,32,33,34,35,36,37,38,39,40,41,42,43,44,45,46,47,48,49,50,51,52,53,54,55,56,57,58,59,60,61,62,63,64,65,66,67,68,69,70,71,72,73,74,75,76,77,78,79,80,81,82,83,84,85,86],"tree_info":[0,0,0,0,0,0,0,0,0,0,0,0,0,0,0,0,0,0,0,0,0,0,0,0,0,0,0,0,0,0,0,0,0,0,0,0,0,0,0,0,0,0,0,0,0,0,0,0,0,0,0,0,0,0,0,0,0,0,0,0,0,0,0,0,0,0,0,0,0,0,0,0,0,0,0,0,0,0,0,0,0,0,0,0,0,0],"trees":[{"base_weights":[-7.44984E-3,-1.4824126E1,2.3659407E1,-2.109526E1,-5.0981464E0,1.9182943E1,2.8775368E1,-1.1253952E0,-1.8505196E1,-6.5801053E0,-2.6734743E0,1.7859304E1,2.3272476E1,2.654853E1,3.1816929E1,-9.3713564E-1,-3.6558554E-1,-2.8424236E-1,-4.614763E-1,-1.6470224E-1,3.5164458E-1,4.7213268E-1,9.115203E-1,7.227294E-1,1.2508296E0,8.082715E-1,1.367853E0,1.613573E0,9.123001E-1],"categories":[],"categories_nodes":[],"categories_segments":[],"categories_sizes":[],"default_left":[0,0,0,0,0,0,0,0,0,0,0,0,0,0,0,0,0,0,0,0,0,0,0,0,0,0,0,0,0],"id":0,"left_children":[1,3,5,7,9,11,13,-1,15,17,19,21,23,25,27,-1,-1,-1,-1,-1,-1,-1,-1,-1,-1,-1,-1,-1,-1],"loss_changes":[1.6940586E6,1.811025E5,4.2044625E4,6.1913125E3,4.1721543E3,4.970375E3,5.02075E3,0E0,1.5724688E3,1.6624277E3,2.6975928E3,2.1891719E3,3.3294375E3,3.8056562E3,1.6379688E3,0E0,0E0,0E0,0E0,0E0,0E0,0E0,0E0,0E0,0E0,0E0,0E0,0E0,0E0],"parents":[2147483647,0,0,1,1,2,2,3,3,4,4,5,5,6,6,8,8,9,9,10,10,11,11,12,12,13,13,14,14],"right_children":[2,4,6,8,10,12,14,-1,16,18,20,22,24,26,28,-1,-1,-1,-1,-1,-1,-1,-1,-1,-1,-1,-1,-1,-1],"split_conditions":[4.642857E1,2.7E1,6.542857E1,2.0714285E1,3.7285713E1,7.2E1,7.3E1,-1.1253952E0,3.6E1,1.2166667E-1,5.8E1,4.8714287E1,5.4285713E1,5E1,1.3625E-1,-9.3713564E-1,-3.6558554E-1,-2.8424236E-1,-4.614763E-1,-1.6470224E-1,3.5164458E-1,4.7213268E-1,9.115203E-1,7.227294E-1,1.2508296E0,8.082715E-1,1.367853E0,1.613573E0,9.123001E-1],"split_indices":[8,8,8,8,8,7,7,0,7,10,7,8,8,5,10,0,0,0,0,0,0,0,0,0,0,0,0,0,0],"split_type":[0,0,0,0,0,0,0,0,0,0,0,0,0,0,0,0,0,0,0,0,0,0,0,0,0,0,0,0,0],"sum_hessian":[4.829E3,2.97E3,1.859E3,1.805E3,1.165E3,9.94E2,8.65E2,1.163E3,6.42E2,7.22E2,4.43E2,7.55E2,2.39E2,5.05E2,3.6E2,6.28E2,1.4E1,5.42E2,1.8E2,4.17E2,2.6E1,3.3E1,7.22E2,4.1E1,1.98E2,3.8E1,4.67E2,3.47E2,1.3E1],"tree_param":{"num_deleted":"0","num_feature":"12","num_nodes":"29","size_leaf_vector":"1"}},{"base_weights":[5.8283404E-2,-1.421343E1,2.2662756E1,-2.0233793E1,-5.2667847E0,1.790321E1,3.0498066E1,-1.0747763E0,-1.7708136E1,-2.6763303E0,-7.801249E0,1.5723459E1,2.0294971E1,3.1417622E1,2.2691668E1,-9.031399E-1,-7.949127E-1,-2.8044143E-1,-1.0834185E-1,-8.2730734E-1,-3.7750128E-1,8.01034E-1,3.637694E-2,1.0451707E0,3.8337144E-1,1.8033885E0,1.4968656E0,4.9954015E-1,1.242477E0],"categories":[],"categories_nodes":[],"categories_segments":[],"categories_sizes":[],"default_left":[0,0,0,0,0,0,0,0,0,0,0,0,0,0,0,0,0,0,0,0,0,0,0,0,0,0,0,0,0],"id":1,"left_children":[1,3,5,7,9,11,13,-1,15,17,19,21,23,25,27,-1,-1,-1,-1,-1,-1,-1,-1,-1,-1,-1,-1,-1,-1],"loss_changes":[1.5604379E6,1.5959444E5,6.92655E4,5.266125E3,7.8182305E3,5.7649688E3,4.3550625E3,0E0,9.5390625E1,8.723467E2,1.1998203E3,2.7294531E3,4.0884844E3,3.25E3,1.8894688E3,0E0,0E0,0E0,0E0,0E0,0E0,0E0,0E0,0E0,0E0,0E0,0E0,0E0,0E0],"parents":[2147483647,0,0,1,1,2,2,3,3,4,4,5,5,6,6,8,8,9,9,10,10,11,11,12,12,13,13,14,14],"right_children":[2,4,6,8,10,12,14,-1,16,18,20,22,24,26,28,-1,-1,-1,-1,-1,-1,-1,-1,-1,-1,-1,-1,-1,-1],"split_conditions":[4.5233334E1,2.41E1,6.663333E1,2.0633333E1,3E0,1E1,4E0,-1.0747763E0,1.1055556E-1,7.454546E-2,1.1E1,8.064516E-1,7.419355E-1,6.985714E1,7.818182E-2,-9.031399E-1,-7.949127E-1,-2.8044143E-1,-1.0834185E-1,-8.2730734E-1,-3.7750128E-1,8.01034E-1,3.637694E-2,1.0451707E0,3.8337144E-1,1.8033885E0,1.4968656E0,4.9954015E-1,1.242477E0],"split_indices":[9,9,9,9,0,0,0,0,10,10,0,11,11,8,10,0,0,0,0,0,0,0,0,0,0,0,0,0,0],"split_type":[0,0,0,0,0,0,0,0,0,0,0,0,0,0,0,0,0,0,0,0,0,0,0,0,0,0,0,0,0],"sum_hessian":[4.835E3,2.964E3,1.871E3,1.771E3,1.193E3,1.166E3,7.05E2,1.176E3,5.95E2,5.91E2,6.02E2,6.14E2,5.52E2,6.28E2,7.7E1,4.9E2,1.05E2,8.6E1,5.05E2,1.5E1,5.87E2,6.02E2,1.2E1,5.26E2,2.6E1,1.46E2,4.82E2,1.2E1,6.5E1],"tree_param":{"num_deleted":"0","num_feature":"12","num_nodes":"29","size_leaf_vector":"1"}},{"base_weights":[-3.269829E-1,-1.3453889E1,2.1207859E1,-1.9157825E1,-4.9408307E0,1.6736416E1,2.8612526E1,-2.039463E1,-1.6640137E1,-2.5803328E0,-7.300967E0,1.4578947E1,1.921404E1,2.9461609E1,2.142621E1,-1.0497737E0,-9.851859E-1,-8.3979017E-1,8.2395844E-2,-3.7292548E-2,-1.7707855E-1,-3.82353E-1,-2.6511028E-1,6.214742E-1,8.0616516E-1,6.350895E-1,9.781429E-1,1.7459675E0,1.4003485E0,1.2025666E0,7.67594E-1],"categories":[],"categories_nodes":[],"categories_segments":[],"categories_sizes":[],"default_left":[0,0,0,0,0,0,0,0,0,0,0,0,0,0,0,0,0,0,0,0,0,0,0,0,0,0,0,0,0,0,0],"id":2,"left_children":[1,3,5,7,9,11,13,15,17,19,21,23,25,27,29,-1,-1,-1,-1,-1,-1,-1,-1,-1,-1,-1,-1,-1,-1,-1,-1],"loss_changes":[1.3786616E6,1.4703594E5,6.0674438E4,5.3091875E3,6.7611855E3,5.8884375E3,3.6034375E3,8.94375E1,1.7443281E3,1.0730166E3,3.8004102E2,1.8610312E3,9.645469E2,3.928375E3,8.5859766E2,0E0,0E0,0E0,0E0,0E0,0E0,0E0,0E0,0E0,0E0,0E0,0E0,0E0,0E0,0E0,0E0],"parents":[2147483647,0,0,1,1,2,2,3,3,4,4,5,5,6,6,7,7,8,8,9,9,10,10,11,11,12,12,13,13,14,14],"right_children":[2,4,6,8,10,12,14,16,18,20,22,24,26,28,30,-1,-1,-1,-1,-1,-1,-1,-1,-1,-1,-1,-1,-1,-1,-1,-1],"split_conditions":[4.5233334E1,3.01E1,6.663333E1,2.0633333E1,3E0,1E1,4E0,1.8466667E1,1.1E1,3.3E1,4.5E1,5.6E1,3.9E1,6.928571E1,7.171429E1,-1.0497737E0,-9.851859E-1,-8.3979017E-1,8.2395844E-2,-3.7292548E-2,-1.7707855E-1,-3.82353E-1,-2.6511028E-1,6.214742E-1,8.0616516E-1,6.350895E-1,9.781429E-1,1.7459675E0,1.4003485E0,1.2025666E0,7.67594E-1],"split_indices":[9,9,9,9,0,0,0,9,0,5,6,7,5,8,8,0,0,0,0,0,0,0,0,0,0,0,0,0,0,0,0],"split_type":[0,0,0,0,0,0,0,0,0,0,0,0,0,0,0,0,0,0,0,0,0,0,0,0,0,0,0,0,0,0,0],"sum_hessian":[4.875E3,3.029E3,1.846E3,1.813E3,1.216E3,1.153E3,6.93E2,1.211E3,6.02E2,6.09E2,6.07E2,6.2E2,5.33E2,6.17E2,7.6E1,6.32E2,5.79E2,5.97E2,5E0,2.1E2,3.99E2,5.15E2,9.2E1,2.63E2,3.57E2,2.9E1,5.04E2,1.25E2,4.92E2,5.1E1,2.5E1],"tree_param":{"num_deleted":"0","num_feature":"12","num_nodes":"31","size_leaf_vector":"1"}},{"base_weights":[1.0983906E-2,-1.2806999E1,2.0139006E1,-1.8337698E1,-4.88713E0,1.5578479E1,2.7760853E1,-1.9470646E1,-8.0650437E-1,-2.5841758E0,-7.137459E0,1.3444777E1,1.8054897E1,2.8915459E1,1.9200272E1,-9.739035E-1,-2.7335826E-1,-1.2048564E-1,-7.662036E-1,-7.640547E-1,-3.4616995E-1,-1.6878465E-2,6.854126E-1,9.274417E-1,1.2677912E-1,1.6591939E0,1.3748854E0,4.03013E-1,1.061315E0],"categories":[],"categories_nodes":[],"categories_segments":[],"categories_sizes":[],"default_left":[0,0,0,0,0,0,0,0,0,0,0,0,0,0,0,0,0,0,0,0,0,0,0,0,0,0,0,0,0],"id":3,"left_children":[1,3,5,7,9,11,13,15,-1,17,19,21,23,25,27,-1,-1,-1,-1,-1,-1,-1,-1,-1,-1,-1,-1,-1,-1],"loss_changes":[1.2546571E6,1.30047375E5,6.5332688E4,4.0604375E3,6.319635E3,6.024E3,6.432875E3,1.3125E1,0E0,1.3099937E3,9.715156E2,2.3323047E3,4.1383594E3,2.8455E3,1.7924961E3,0E0,0E0,0E0,0E0,0E0,0E0,0E0,0E0,0E0,0E0,0E0,0E0,0E0,0E0],"parents":[2147483647,0,0,1,1,2,2,3,3,4,4,5,5,6,6,7,7,9,9,10,10,11,11,12,12,13,13,14,14],"right_children":[2,4,6,8,10,12,14,16,-1,18,20,22,24,26,28,-1,-1,-1,-1,-1,-1,-1,-1,-1,-1,-1,-1,-1,-1],"split_conditions":[4.5233334E1,2.41E1,6.663333E1,2.03E1,3E0,1E1,4E0,3.7E1,-8.0650437E-1,1.6250001E-1,1.1E1,3E0,1.48E-1,6.957143E1,7.590909E-2,-9.739035E-1,-2.7335826E-1,-1.2048564E-1,-7.662036E-1,-7.640547E-1,-3.4616995E-1,-1.6878465E-2,6.854126E-1,9.274417E-1,1.2677912E-1,1.6591939E0,1.3748854E0,4.03013E-1,1.061315E0],"split_indices":[9,9,9,9,0,0,0,5,0,10,0,0,10,8,10,0,0,0,0,0,0,0,0,0,0,0,0,0,0],"split_type":[0,0,0,0,0,0,0,0,0,0,0,0,0,0,0,0,0,0,0,0,0,0,0,0,0,0,0,0,0],"sum_hessian":[4.861E3,2.97E3,1.891E3,1.748E3,1.222E3,1.185E3,7.06E2,1.15E3,5.98E2,6.05E2,6.17E2,6.4E2,5.45E2,6.2E2,8.6E1,1.149E3,1E0,5.98E2,7E0,1.4E1,6.03E2,1.2E1,6.28E2,5.28E2,1.7E1,1.49E2,4.71E2,1.4E1,7.2E1],"tree_param":{"num_deleted":"0","num_feature":"12","num_nodes":"29","size_leaf_vector":"1"}},{"base_weights":[8.032725E-3,-1.2235168E1,1.9262896E1,-1.7313202E1,-4.584675E0,1.551918E1,2.5621675E1,-1.8346905E1,-1.4954371E1,-2.7030551E0,-6.464926E0,1.3463106E1,1.789865E1,1.4382946E1,2.6256298E1,-9.5095587E-1,-8.857567E-1,-7.5262E-1,-2.557899E-1,-1.0279228E-1,-2.805741E-1,-3.0745655E-1,-7.241107E-1,6.831978E-1,-2.1940874E-1,9.172837E-1,3.6125875E-1,-5.484066E-2,8.849884E-1,1.3512934E0,1.013107E0],"categories":[],"categories_nodes":[],"categories_segments":[],"categories_sizes":[],"default_left":[0,0,0,0,0,0,0,0,0,0,0,0,0,0,0,0,0,0,0,0,0,0,0,0,0,0,0,0,0,0,0],"id":4,"left_children":[1,3,5,7,9,11,13,15,17,19,21,23,25,27,29,-1,-1,-1,-1,-1,-1,-1,-1,-1,-1,-1,-1,-1,-1,-1,-1],"loss_changes":[1.1596106E6,1.1674094E5,4.5118375E4,4.13175E3,4.2315625E3,5.6592188E3,4.664875E3,1.9478125E2,4.5925E2,1.1216455E3,1.4300391E3,2.3940625E3,2.5202969E3,2.0731582E3,2.533875E3,0E0,0E0,0E0,0E0,0E0,0E0,0E0,0E0,0E0,0E0,0E0,0E0,0E0,0E0,0E0,0E0],"parents":[2147483647,0,0,1,1,2,2,3,3,4,4,5,5,6,6,7,7,8,8,9,9,10,10,11,11,12,12,13,13,14,14],"right_children":[2,4,6,8,10,12,14,16,18,20,22,24,26,28,30,-1,-1,-1,-1,-1,-1,-1,-1,-1,-1,-1,-1,-1,-1,-1,-1],"split_conditions":[4.5233334E1,3.01E1,6.663333E1,2.1233334E1,3E0,1E1,6.818182E-2,1.8366667E1,1.1E1,1.275E-1,8.5E-1,8.518519E-1,1.4538461E-1,3.7931034E-1,4E0,-9.5095587E-1,-8.857567E-1,-7.5262E-1,-2.557899E-1,-1.0279228E-1,-2.805741E-1,-3.0745655E-1,-7.241107E-1,6.831978E-1,-2.1940874E-1,9.172837E-1,3.6125875E-1,-5.484066E-2,8.849884E-1,1.3512934E0,1.013107E0],"split_indices":[9,9,9,9,0,0,10,9,0,10,11,11,10,11,0,0,0,0,0,0,0,0,0,0,0,0,0,0,0,0,0],"split_type":[0,0,0,0,0,0,0,0,0,0,0,0,0,0,0,0,0,0,0,0,0,0,0,0,0,0,0,0,0,0,0],"sum_hessian":[4.917E3,3.006E3,1.911E3,1.806E3,1.2E3,1.205E3,7.06E2,1.251E3,5.55E2,6.01E2,5.99E2,6.5E2,5.55E2,3.9E1,6.67E2,5.92E2,6.59E2,5.49E2,6E0,4.93E2,1.08E2,5.78E2,2.1E1,6.43E2,7E0,5.32E2,2.3E1,7E0,3.2E1,5.88E2,7.9E1],"tree_param":{"num_deleted":"0","num_feature":"12","num_nodes":"31","size_leaf_vector":"1"}},{"base_weights":[-1.0174985E-1,-1.153446E1,1.8262707E1,-1.6467352E1,-4.3154097E0,1.4456753E1,2.4776476E1,-1.7527514E1,-1.431579E1,-5.3587165E0,-1.658487E0,1.4591179E1,-2.784006E0,1.3480099E1,2.5526182E1,-9.044036E-1,-8.464414E-1,-7.345078E-1,-6.225087E-1,-2.5615525E-1,-6.591715E-1,1.3926751E-2,-1.6439456E-1,-6.3233644E-1,7.335846E-1,-4.5895585E-1,2.7234644E-1,8.7637466E-1,2.8913864E-1,1.164935E0,1.3892885E0],"categories":[],"categories_nodes":[],"categories_segments":[],"categories_sizes":[],"default_left":[0,0,0,0,0,0,0,0,0,0,0,0,0,0,0,0,0,0,0,0,0,0,0,0,0,0,0,0,0,0,0],"id":5,"left_children":[1,3,5,7,9,11,13,15,17,19,21,23,25,27,29,-1,-1,-1,-1,-1,-1,-1,-1,-1,-1,-1,-1,-1,-1,-1,-1],"loss_changes":[1.0243736E6,1.07010625E5,4.605075E4,3.8229375E3,3.3784785E3,2.7846562E3,5.491E3,9.384375E1,2.3266406E2,1.5492891E3,1.0929581E3,2.7623125E3,5.7637537E2,1.3005776E3,2.5990312E3,0E0,0E0,0E0,0E0,0E0,0E0,0E0,0E0,0E0,0E0,0E0,0E0,0E0,0E0,0E0,0E0],"parents":[2147483647,0,0,1,1,2,2,3,3,4,4,5,5,6,6,7,7,8,8,9,9,10,10,11,11,12,12,13,13,14,14],"right_children":[2,4,6,8,10,12,14,16,18,20,22,24,26,28,30,-1,-1,-1,-1,-1,-1,-1,-1,-1,-1,-1,-1,-1,-1,-1,-1],"split_conditions":[4.5233334E1,2.41E1,6.663333E1,2.0633333E1,3.7266666E1,8.518519E-1,6.9375E-2,1.8366667E1,1.1030303E-1,8.5E-1,5.4285717E-1,1.8181819E-1,6.5E1,3.4E1,7.3E1,-9.044036E-1,-8.464414E-1,-7.345078E-1,-6.225087E-1,-2.5615525E-1,-6.591715E-1,1.3926751E-2,-1.6439456E-1,-6.3233644E-1,7.335846E-1,-4.5895585E-1,2.7234644E-1,8.7637466E-1,2.8913864E-1,1.164935E0,1.3892885E0],"split_indices":[9,9,9,9,9,11,10,9,10,11,11,11,5,4,7,0,0,0,0,0,0,0,0,0,0,0,0,0,0,0,0],"split_type":[0,0,0,0,0,0,0,0,0,0,0,0,0,0,0,0,0,0,0,0,0,0,0,0,0,0,0,0,0,0,0],"sum_hessian":[4.877E3,3.006E3,1.871E3,1.785E3,1.221E3,1.183E3,6.88E2,1.191E3,5.94E2,8.76E2,3.45E2,1.174E3,9E0,4.4E1,6.44E2,6E2,5.91E2,4.89E2,1.05E2,8.52E2,2.4E1,1.58E2,1.87E2,3E0,1.171E3,5E0,4E0,2.8E1,1.6E1,3.3E2,3.14E2],"tree_param":{"num_deleted":"0","num_feature":"12","num_nodes":"31","size_leaf_vector":"1"}},{"base_weights":[1.1760187E-1,-1.0881981E1,1.7572886E1,-1.5629556E1,-3.9623723E0,2.3792831E1,1.4270067E1,-1.6624447E1,-1.3427235E1,-1.9851346E0,-5.9330387E0,2.5173307E1,1.9189121E1,1.2424684E1,1.6101109E1,-8.599929E-1,-8.034647E-1,-6.886628E-1,-5.576174E-1,-6.301446E-2,-2.4926297E-1,-3.5066506E-1,-2.4343191E-1,1.4639542E0,1.1857121E0,6.621358E-1,1.0696619E0,5.3868717E-1,7.086875E-1,8.2180166E-1,2.970279E-1],"categories":[],"categories_nodes":[],"categories_segments":[],"categories_sizes":[],"default_left":[0,0,0,0,0,0,0,0,0,0,0,0,0,0,0,0,0,0,0,0,0,0,0,0,0,0,0,0,0,0,0],"id":6,"left_children":[1,3,5,7,9,11,13,15,17,19,21,23,25,27,29,-1,-1,-1,-1,-1,-1,-1,-1,-1,-1,-1,-1,-1,-1,-1,-1],"loss_changes":[9.2582725E5,9.7112375E4,3.7953312E4,3.6199062E3,4.6834746E3,3.616125E3,3.9222969E3,1.081875E2,2.80125E2,1.3050168E3,6.592031E2,2.2590312E3,1.7219961E3,1.6145E3,1.9748125E3,0E0,0E0,0E0,0E0,0E0,0E0,0E0,0E0,0E0,0E0,0E0,0E0,0E0,0E0,0E0,0E0],"parents":[2147483647,0,0,1,1,2,2,3,3,4,4,5,5,6,6,7,7,8,8,9,9,10,10,11,11,12,12,13,13,14,14],"right_children":[2,4,6,8,10,12,14,16,18,20,22,24,26,28,30,-1,-1,-1,-1,-1,-1,-1,-1,-1,-1,-1,-1,-1,-1,-1,-1],"split_conditions":[5.0366665E1,3.01E1,4E0,2.1233334E1,1E1,8.6E1,1E1,1.8366667E1,1.11999996E-1,1.275E-1,3.3E1,6.928571E1,7.342857E1,5.9E1,1.4538461E-1,-8.599929E-1,-8.034647E-1,-6.886628E-1,-5.576174E-1,-6.301446E-2,-2.4926297E-1,-3.5066506E-1,-2.4343191E-1,1.4639542E0,1.1857121E0,6.621358E-1,1.0696619E0,5.3868717E-1,7.086875E-1,8.2180166E-1,2.970279E-1],"split_indices":[9,9,0,9,0,6,0,9,10,10,7,8,8,7,10,0,0,0,0,0,0,0,0,0,0,0,0,0,0,0,0],"split_type":[0,0,0,0,0,0,0,0,0,0,0,0,0,0,0,0,0,0,0,0,0,0,0,0,0,0,0,0,0,0,0],"sum_hessian":[4.82E3,2.957E3,1.863E3,1.753E3,1.204E3,6.44E2,1.219E3,1.203E3,5.5E2,6.02E2,6.02E2,4.92E2,1.52E2,6.11E2,6.08E2,5.76E2,6.27E2,4.73E2,7.7E1,4.86E2,1.16E2,2.96E2,3.06E2,1.24E2,3.68E2,4.3E1,1.09E2,3.18E2,2.93E2,5.88E2,2E1],"tree_param":{"num_deleted":"0","num_feature":"12","num_nodes":"31","size_leaf_vector":"1"}},{"base_weights":[9.747348E-2,-1.0340081E1,1.6539616E1,-1.4859263E1,-3.5829644E0,1.3145168E1,2.2068047E1,-1.5766386E1,-1.283393E1,-2.0276592E0,-5.1090174E0,1.1453423E1,1.5073976E1,2.283972E1,1.5990223E1,-7.8894067E-1,-2.7224502E-1,-6.450154E-1,6.001609E-1,-7.1176946E-2,-2.3309313E-1,-2.4550366E-1,-5.3214204E-1,4.9300382E-1,6.575821E-1,7.755574E-1,2.4778084E-1,1.2087418E0,9.150586E-1,4.6315214E-1,1.1094546E0],"categories":[],"categories_nodes":[],"categories_segments":[],"categories_sizes":[],"default_left":[0,0,0,0,0,0,0,0,0,0,0,0,0,0,0,0,0,0,0,0,0,0,0,0,0,0,0,0,0,0,0],"id":7,"left_children":[1,3,5,7,9,11,13,15,17,19,21,23,25,27,29,-1,-1,-1,-1,-1,-1,-1,-1,-1,-1,-1,-1,-1,-1,-1,-1],"loss_changes":[8.335371E5,9.0671125E4,3.51025E4,3.0679375E3,2.8188271E3,3.6483906E3,2.992875E3,7.121875E1,1.0715078E3,9.3545776E2,6.093965E2,1.5695938E3,2.3295078E3,3.39325E3,3.297336E3,0E0,0E0,0E0,0E0,0E0,0E0,0E0,0E0,0E0,0E0,0E0,0E0,0E0,0E0,0E0,0E0],"parents":[2147483647,0,0,1,1,2,2,3,3,4,4,5,5,6,6,7,7,8,8,9,9,10,10,11,11,12,12,13,13,14,14],"right_children":[2,4,6,8,10,12,14,16,18,20,22,24,26,28,30,-1,-1,-1,-1,-1,-1,-1,-1,-1,-1,-1,-1,-1,-1,-1,-1],"split_conditions":[4.5233334E1,3.01E1,6.663333E1,2.1233334E1,3E0,1E1,4E0,3.7E1,3.8E1,1.275E-1,1.55E-1,5.9E1,1.4538461E-1,8.6E1,7E1,-7.8894067E-1,-2.7224502E-1,-6.450154E-1,6.001609E-1,-7.1176946E-2,-2.3309313E-1,-2.4550366E-1,-5.3214204E-1,4.9300382E-1,6.575821E-1,7.755574E-1,2.4778084E-1,1.2087418E0,9.150586E-1,4.6315214E-1,1.1094546E0],"split_indices":[9,9,9,9,0,0,0,5,7,10,10,7,10,6,6,0,0,0,0,0,0,0,0,0,0,0,0,0,0,0,0],"split_type":[0,0,0,0,0,0,0,0,0,0,0,0,0,0,0,0,0,0,0,0,0,0,0,0,0,0,0,0,0,0,0],"sum_hessian":[4.855E3,2.97E3,1.885E3,1.779E3,1.191E3,1.17E3,7.15E2,1.224E3,5.55E2,5.91E2,6E2,6.27E2,5.43E2,6.32E2,8.3E1,1.222E3,2E0,5.54E2,1E0,4.82E2,1.09E2,5.81E2,1.9E1,3.27E2,3E2,5.2E2,2.3E1,4.85E2,1.47E2,4.1E1,4.2E1],"tree_param":{"num_deleted":"0","num_feature":"12","num_nodes":"31","size_leaf_vector":"1"}},{"base_weights":[-6.8806E-4,-9.877007E0,1.5561201E1,-1.4153818E1,-3.6637657E0,1.2325157E1,2.0818377E1,-1.4981604E1,-6.1123765E-1,-4.304264E0,-2.4203427E-1,1.0970611E1,1.3776218E1,2.1752604E1,1.643984E1,-7.5390834E-1,-6.0894305E-1,-2.0675384E-1,-4.619608E-1,8.667459E-2,-1.3231075E-1,3.823085E-1,5.977933E-1,8.885298E-1,6.385717E-1,1.0964845E0,3.097354E-1,2.2461982E-1,9.0386343E-1],"categories":[],"categories_nodes":[],"categories_segments":[],"categories_sizes":[],"default_left":[0,0,0,0,0,0,0,0,0,0,0,0,0,0,0,0,0,0,0,0,0,0,0,0,0,0,0,0,0],"id":8,"left_children":[1,3,5,7,9,11,13,15,-1,17,19,21,23,25,27,-1,-1,-1,-1,-1,-1,-1,-1,-1,-1,-1,-1,-1,-1],"loss_changes":[7.4541675E5,7.878984E4,3.1777844E4,2.6225E3,2.653005E3,2.1446094E3,2.5711875E3,1.4790625E2,0E0,8.1342773E2,9.164953E2,1.9033125E3,2.0206016E3,1.4814375E3,2.4619883E3,0E0,0E0,0E0,0E0,0E0,0E0,0E0,0E0,0E0,0E0,0E0,0E0,0E0,0E0],"parents":[2147483647,0,0,1,1,2,2,3,3,4,4,5,5,6,6,7,7,9,9,10,10,11,11,12,12,13,13,14,14],"right_children":[2,4,6,8,10,12,14,16,-1,18,20,22,24,26,28,-1,-1,-1,-1,-1,-1,-1,-1,-1,-1,-1,-1,-1,-1],"split_conditions":[4.5233334E1,2.41E1,6.663333E1,2.1233334E1,3.89E1,6.1E1,8.8E1,2.1857143E1,-6.1123765E-1,8.5E-1,4.4E1,5.67E1,6.5E1,7.916667E-1,8E0,-7.5390834E-1,-6.0894305E-1,-2.0675384E-1,-4.619608E-1,8.667459E-2,-1.3231075E-1,3.823085E-1,5.977933E-1,8.885298E-1,6.385717E-1,1.0964845E0,3.097354E-1,2.2461982E-1,9.0386343E-1],"split_indices":[9,9,9,9,9,5,6,8,0,11,5,9,5,11,4,0,0,0,0,0,0,0,0,0,0,0,0,0,0],"split_type":[0,0,0,0,0,0,0,0,0,0,0,0,0,0,0,0,0,0,0,0,0,0,0,0,0,0,0,0,0],"sum_hessian":[4.848E3,2.966E3,1.882E3,1.756E3,1.21E3,1.167E3,7.15E2,1.224E3,5.32E2,1.019E3,1.91E2,6.08E2,5.59E2,5.86E2,1.29E2,1.179E3,4.5E1,9.87E2,3.2E1,1.05E2,8.6E1,1.41E2,4.67E2,1.09E2,4.5E2,5.79E2,7E0,1.6E1,1.13E2],"tree_param":{"num_deleted":"0","num_feature":"12","num_nodes":"29","size_leaf_vector":"1"}},{"base_weights":[2.8623924E-2,-9.33499E0,1.4950923E1,-1.3374574E1,-3.4289076E0,1.9386562E1,1.2548148E1,-1.4311158E1,-1.16280775E1,-1.7218006E0,-5.0664835E0,-9.1539955E-1,2.0198807E1,1.0739238E1,1.4327396E1,-7.302354E-1,-6.6960144E-1,-5.884848E-1,-2.333722E-1,-9.7136155E-2,3.44557E-1,-5.722884E-1,-2.3305468E-1,-6.983482E-1,3.770939E-2,1.0367941E0,5.544363E-1,5.504078E-1,-1.7111808E-1,7.409182E-1,2.3713551E-1],"categories":[],"categories_nodes":[],"categories_segments":[],"categories_sizes":[],"default_left":[0,0,0,0,0,0,0,0,0,0,0,0,0,0,0,0,0,0,0,0,0,0,0,0,0,0,0,0,0,0,0],"id":9,"left_children":[1,3,5,7,9,11,13,15,17,19,21,23,25,27,29,-1,-1,-1,-1,-1,-1,-1,-1,-1,-1,-1,-1,-1,-1,-1,-1],"loss_changes":[6.733425E5,7.0598016E4,1.9559031E4,2.7092188E3,3.357079E3,1.07535625E4,3.7340781E3,1.12E2,5.5525E2,1.137938E3,1.5345137E3,5.7709265E2,2.8329688E3,2.334086E3,2.7814219E3,0E0,0E0,0E0,0E0,0E0,0E0,0E0,0E0,0E0,0E0,0E0,0E0,0E0,0E0,0E0,0E0],"parents":[2147483647,0,0,1,1,2,2,3,3,4,4,5,5,6,6,7,7,8,8,9,9,10,10,11,11,12,12,13,13,14,14],"right_children":[2,4,6,8,10,12,14,16,18,20,22,24,26,28,30,-1,-1,-1,-1,-1,-1,-1,-1,-1,-1,-1,-1,-1,-1,-1,-1],"split_conditions":[4.642857E1,2.5857143E1,4E0,2.0571428E1,1E1,3E0,1E1,1.9142857E1,1.1E1,3E0,2.9032257E-1,3.043478E-1,1.3259259E-1,8.064516E-1,7.419355E-1,-7.302354E-1,-6.6960144E-1,-5.884848E-1,-2.333722E-1,-9.7136155E-2,3.44557E-1,-5.722884E-1,-2.3305468E-1,-6.983482E-1,3.770939E-2,1.0367941E0,5.544363E-1,5.504078E-1,-1.7111808E-1,7.409182E-1,2.3713551E-1],"split_indices":[8,8,0,8,0,0,0,8,0,0,11,11,10,11,11,0,0,0,0,0,0,0,0,0,0,0,0,0,0,0,0],"split_type":[0,0,0,0,0,0,0,0,0,0,0,0,0,0,0,0,0,0,0,0,0,0,0,0,0,0,0,0,0,0,0],"sum_hessian":[4.817E3,2.96E3,1.857E3,1.757E3,1.203E3,6.5E2,1.207E3,1.139E3,6.18E2,5.9E2,6.13E2,2.5E1,6.25E2,6.02E2,6.05E2,8.52E2,2.87E2,6.05E2,1.3E1,5.76E2,1.4E1,3.5E1,5.78E2,2E0,2.3E1,5.89E2,3.6E1,5.91E2,1.1E1,5.75E2,3E1],"tree_param":{"num_deleted":"0","num_feature":"12","num_nodes":"31","size_leaf_vector":"1"}},{"base_weights":[1.0150145E-1,-8.918876E0,1.42647295E1,-1.2704883E1,-3.3599114E0,1.1285185E1,1.9332571E1,-1.3508136E1,-1.1091842E1,-1.5409188E0,-5.1553106E0,9.279474E0,1.3479699E1,1.5786117E1,2.0715252E1,-6.9885415E-1,-6.508089E-1,-5.68894E-1,-4.8030922E-1,-1.2211677E-1,1.8399006E-2,-4.999054E-1,-2.3068467E-1,4.75903E-1,-3.184614E-1,6.981046E-1,2.625305E-1,8.586365E-1,6.211404E-1,1.0502234E0,2.2361271E-1],"categories":[],"categories_nodes":[],"categories_segments":[],"categories_sizes":[],"default_left":[0,0,0,0,0,0,0,0,0,0,0,0,0,0,0,0,0,0,0,0,0,0,0,0,0,0,0,0,0,0,0],"id":10,"left_children":[1,3,5,7,9,11,13,15,17,19,21,23,25,27,29,-1,-1,-1,-1,-1,-1,-1,-1,-1,-1,-1,-1,-1,-1,-1,-1],"loss_changes":[6.2026294E5,6.238058E4,2.8305469E4,2.13575E3,3.920833E3,5.121578E3,3.0957188E3,8.86875E1,1.4227344E2,1.0316061E3,1.540752E3,2.3978281E3,2.1774844E3,7.193867E2,2.2502188E3,0E0,0E0,0E0,0E0,0E0,0E0,0E0,0E0,0E0,0E0,0E0,0E0,0E0,0E0,0E0,0E0],"parents":[2147483647,0,0,1,1,2,2,3,3,4,4,5,5,6,6,7,7,8,8,9,9,10,10,11,11,12,12,13,13,14,14],"right_children":[2,4,6,8,10,12,14,16,18,20,22,24,26,28,30,-1,-1,-1,-1,-1,-1,-1,-1,-1,-1,-1,-1,-1,-1,-1,-1],"split_conditions":[4.5233334E1,2.41E1,6.7433334E1,2.0633333E1,3E0,1E1,8.9E-2,1.8366667E1,1.1111111E-1,3.89E1,3.4375E-1,8.064516E-1,7.3333335E-1,5E0,7.894737E-1,-6.9885415E-1,-6.508089E-1,-5.68894E-1,-4.8030922E-1,-1.2211677E-1,1.8399006E-2,-4.999054E-1,-2.3068467E-1,4.75903E-1,-3.184614E-1,6.981046E-1,2.625305E-1,8.586365E-1,6.211404E-1,1.0502234E0,2.2361271E-1],"split_indices":[9,9,9,9,0,0,10,9,10,9,11,11,11,1,11,0,0,0,0,0,0,0,0,0,0,0,0,0,0,0,0],"split_type":[0,0,0,0,0,0,0,0,0,0,0,0,0,0,0,0,0,0,0,0,0,0,0,0,0,0,0,0,0,0,0],"sum_hessian":[4.853E3,2.965E3,1.888E3,1.763E3,1.202E3,1.191E3,6.97E2,1.172E3,5.91E2,5.98E2,6.04E2,6.25E2,5.66E2,1.99E2,4.98E2,5.86E2,5.86E2,4.9E2,1.01E2,4.06E2,1.92E2,5.9E1,5.45E2,6.16E2,9E0,5.34E2,3.2E1,1.38E2,6.1E1,4.89E2,9E0],"tree_param":{"num_deleted":"0","num_feature":"12","num_nodes":"31","size_leaf_vector":"1"}},{"base_weights":[6.7477606E-2,-8.541489E0,1.3761208E1,-1.2182991E1,-3.3031666E0,1.1169379E1,1.809595E1,-1.2861211E1,-1.0575025E1,-1.736529E0,-4.919379E0,1.1392077E1,9.6676344E-1,9.667902E0,1.863779E1,-6.647821E-1,-6.1835116E-1,-5.406806E-1,-4.4382697E-1,-8.011193E-2,-4.8705807E-1,-5.9675807E-1,-2.3590265E-1,4.976023E-1,6.5254766E-1,-6.80474E-1,1.7298645E-1,6.6607946E-1,4.435151E-2,8.126257E-1,1.0164138E0],"categories":[],"categories_nodes":[],"categories_segments":[],"categories_sizes":[],"default_left":[0,0,0,0,0,0,0,0,0,0,0,0,0,0,0,0,0,0,0,0,0,0,0,0,0,0,0,0,0,0,0],"id":11,"left_children":[1,3,5,7,9,11,13,15,17,19,21,23,25,27,29,-1,-1,-1,-1,-1,-1,-1,-1,-1,-1,-1,-1,-1,-1,-1,-1],"loss_changes":[5.677524E5,5.636561E4,2.0683562E4,1.7659219E3,3.0653281E3,2.63825E3,2.9890781E3,9.7921875E1,1.15953125E2,6.4870874E2,7.869287E2,2.5957812E3,9.91875E2,1.3998159E3,2.294625E3,0E0,0E0,0E0,0E0,0E0,0E0,0E0,0E0,0E0,0E0,0E0,0E0,0E0,0E0,0E0,0E0],"parents":[2147483647,0,0,1,1,2,2,3,3,4,4,5,5,6,6,7,7,8,8,9,9,10,10,11,11,12,12,13,13,14,14],"right_children":[2,4,6,8,10,12,14,16,18,20,22,24,26,28,30,-1,-1,-1,-1,-1,-1,-1,-1,-1,-1,-1,-1,-1,-1,-1,-1],"split_conditions":[4.5233334E1,2.41E1,6.663333E1,2.1233334E1,3E0,1.5272728E-1,6.9375E-2,1.8533333E1,1.11999996E-1,6.7E1,1.1E1,1E1,5.34E1,9E0,6.9E1,-6.647821E-1,-6.1835116E-1,-5.406806E-1,-4.4382697E-1,-8.011193E-2,-4.8705807E-1,-5.9675807E-1,-2.3590265E-1,4.976023E-1,6.5254766E-1,-6.80474E-1,1.7298645E-1,6.6607946E-1,4.435151E-2,8.126257E-1,1.0164138E0],"split_indices":[9,9,9,9,0,10,10,9,10,7,0,0,9,3,7,0,0,0,0,0,0,0,0,0,0,0,0,0,0,0,0],"split_type":[0,0,0,0,0,0,0,0,0,0,0,0,0,0,0,0,0,0,0,0,0,0,0,0,0,0,0,0,0,0,0],"sum_hessian":[4.814E3,2.956E3,1.858E3,1.743E3,1.213E3,1.165E3,6.93E2,1.221E3,5.22E2,6.17E2,5.96E2,1.14E3,2.5E1,4.3E1,6.5E2,6.36E2,5.85E2,4.53E2,6.9E1,6.08E2,9E0,1.5E1,5.81E2,6.14E2,5.26E2,3E0,2.2E1,3E1,1.3E1,2.74E2,3.76E2],"tree_param":{"num_deleted":"0","num_feature":"12","num_nodes":"31","size_leaf_vector":"1"}},{"base_weights":[-9.003033E-2,-8.086083E0,1.264321E1,-1.1468451E1,-3.1105945E0,1.005875E1,1.6964561E1,-1.2271886E1,-9.969037E0,-1.7643299E0,-4.501409E0,8.561221E0,1.1762006E1,8.5972E0,1.74579E1,-6.358517E-1,-5.8991647E-1,-5.011944E-1,6.078167E-1,-9.696626E-2,2.4650674E-1,-1.8555145E-1,-3.2608306E-1,3.7271288E-1,5.562057E-1,6.205923E-1,2.4454692E-1,6.725367E-1,8.2410105E-2,1.0032456E0,7.966935E-1],"categories":[],"categories_nodes":[],"categories_segments":[],"categories_sizes":[],"default_left":[0,0,0,0,0,0,0,0,0,0,0,0,0,0,0,0,0,0,0,0,0,0,0,0,0,0,0,0,0,0,0],"id":12,"left_children":[1,3,5,7,9,11,13,15,17,19,21,23,25,27,29,-1,-1,-1,-1,-1,-1,-1,-1,-1,-1,-1,-1,-1,-1,-1,-1],"loss_changes":[4.9543544E5,5.0266E4,2.0792375E4,2.0207969E3,2.25954E3,2.9014531E3,2.743625E3,9.3234375E1,8.815586E2,7.32376E2,9.25874E2,1.7044102E3,2.386164E3,1.3606458E3,2.3065625E3,0E0,0E0,0E0,0E0,0E0,0E0,0E0,0E0,0E0,0E0,0E0,0E0,0E0,0E0,0E0,0E0],"parents":[2147483647,0,0,1,1,2,2,3,3,4,4,5,5,6,6,7,7,8,8,9,9,10,10,11,11,12,12,13,13,14,14],"right_children":[2,4,6,8,10,12,14,16,18,20,22,24,26,28,30,-1,-1,-1,-1,-1,-1,-1,-1,-1,-1,-1,-1,-1,-1,-1,-1],"split_conditions":[4.5233334E1,3.01E1,6.663333E1,2.03E1,3E0,1E1,6.818182E-2,1.8366667E1,3.7E1,4.7714287E1,1.20714284E-1,9E0,1.3625E-1,3E1,7.142857E1,-6.358517E-1,-5.8991647E-1,-5.011944E-1,6.078167E-1,-9.696626E-2,2.4650674E-1,-1.8555145E-1,-3.2608306E-1,3.7271288E-1,5.562057E-1,6.205923E-1,2.4454692E-1,6.725367E-1,8.2410105E-2,1.0032456E0,7.966935E-1],"split_indices":[9,9,9,9,0,0,10,9,7,8,10,3,10,4,8,0,0,0,0,0,0,0,0,0,0,0,0,0,0,0,0],"split_type":[0,0,0,0,0,0,0,0,0,0,0,0,0,0,0,0,0,0,0,0,0,0,0,0,0,0,0,0,0,0,0],"sum_hessian":[4.864E3,2.988E3,1.876E3,1.778E3,1.21E3,1.176E3,7E2,1.153E3,6.25E2,6.16E2,5.94E2,6.29E2,5.47E2,4E1,6.6E2,5.81E2,5.72E2,6.24E2,1E0,6.01E2,1.5E1,4.29E2,1.65E2,4.42E2,1.87E2,4.99E2,4.8E1,2.3E1,1.7E1,2.39E2,4.21E2],"tree_param":{"num_deleted":"0","num_feature":"12","num_nodes":"31","size_leaf_vector":"1"}},{"base_weights":[-5.9753615E-2,-7.734839E0,1.22163105E1,-1.0941255E1,-3.1098275E0,9.487815E0,1.6610611E1,-1.1660152E1,-9.566631E0,-1.8408475E0,-4.371676E0,9.663551E0,-1.537225E0,8.970372E0,1.7134743E1,-6.0239047E-1,-5.617728E-1,-4.8177227E-1,-5.052678E-2,-6.2679745E-2,-2.2282806E-1,-1.6814695E-1,-3.2856402E-1,-2.292393E-1,4.8969656E-1,-3.4027013E-1,1.4564247E-1,-1.4698578E-1,5.8971155E-1,8.6753225E-1,5.9667148E-2],"categories":[],"categories_nodes":[],"categories_segments":[],"categories_sizes":[],"default_left":[0,0,0,0,0,0,0,0,0,0,0,0,0,0,0,0,0,0,0,0,0,0,0,0,0,0,0,0,0,0,0],"id":13,"left_children":[1,3,5,7,9,11,13,15,17,19,21,23,25,27,29,-1,-1,-1,-1,-1,-1,-1,-1,-1,-1,-1,-1,-1,-1,-1,-1],"loss_changes":[4.5800294E5,4.4321625E4,2.2263344E4,1.6336406E3,1.9550977E3,2.2546094E3,2.7095E3,5.4796875E1,3.5059766E2,9.3603296E2,1.3402568E3,2.158961E3,4.652549E2,1.6490273E3,2.2784062E3,0E0,0E0,0E0,0E0,0E0,0E0,0E0,0E0,0E0,0E0,0E0,0E0,0E0,0E0,0E0,0E0],"parents":[2147483647,0,0,1,1,2,2,3,3,4,4,5,5,6,6,7,7,8,8,9,9,10,10,11,11,12,12,13,13,14,14],"right_children":[2,4,6,8,10,12,14,16,18,20,22,24,26,28,30,-1,-1,-1,-1,-1,-1,-1,-1,-1,-1,-1,-1,-1,-1,-1,-1],"split_conditions":[4.5233334E1,3.01E1,6.663333E1,2.03E1,3E0,8.095238E-1,6.9375E-2,1.8366667E1,1.1E1,1.275E-1,1.175E-1,3E0,5.5E1,3.7931034E-1,7.916667E-1,-6.0239047E-1,-5.617728E-1,-4.8177227E-1,-5.052678E-2,-6.2679745E-2,-2.2282806E-1,-1.6814695E-1,-3.2856402E-1,-2.292393E-1,4.8969656E-1,-3.4027013E-1,1.4564247E-1,-1.4698578E-1,5.8971155E-1,8.6753225E-1,5.9667148E-2],"split_indices":[9,9,9,9,0,11,10,9,0,10,10,0,5,11,11,0,0,0,0,0,0,0,0,0,0,0,0,0,0,0,0],"split_type":[0,0,0,0,0,0,0,0,0,0,0,0,0,0,0,0,0,0,0,0,0,0,0,0,0,0,0,0,0,0,0],"sum_hessian":[4.859E3,2.99E3,1.869E3,1.765E3,1.225E3,1.155E3,7.14E2,1.154E3,6.11E2,6.12E2,6.13E2,1.137E3,1.8E1,4.7E1,6.67E2,5.89E2,5.65E2,6.06E2,5E0,5.01E2,1.11E2,4.22E2,1.91E2,1E1,1.127E3,8E0,1E1,9E0,3.8E1,6.58E2,9E0],"tree_param":{"num_deleted":"0","num_feature":"12","num_nodes":"31","size_leaf_vector":"1"}},{"base_weights":[-3.136842E-2,-7.302793E0,1.1473488E1,-1.0346333E1,-2.8173678E0,1.5944313E1,9.154456E0,-1.1077162E1,-8.968148E0,-1.3195974E0,-4.330212E0,1.6875906E1,1.1050266E1,8.6300457E-1,9.467919E0,-5.5415994E-1,-1.0021758E-1,-4.6055588E-1,-3.9521763E-1,-1.006394E-1,5.3683717E-2,-5.3349394E-1,-2.0426165E-1,1.0176796E0,7.885298E-1,1.3672666E-1,6.136347E-1,-6.653908E-1,1.24535225E-1,3.8950202E-1,5.526174E-1],"categories":[],"categories_nodes":[],"categories_segments":[],"categories_sizes":[],"default_left":[0,0,0,0,0,0,0,0,0,0,0,0,0,0,0,0,0,0,0,0,0,0,0,0,0,0,0,0,0,0,0],"id":14,"left_children":[1,3,5,7,9,11,13,15,17,19,21,23,25,27,29,-1,-1,-1,-1,-1,-1,-1,-1,-1,-1,-1,-1,-1,-1,-1,-1],"loss_changes":[4.1259497E5,4.1225906E4,1.9656875E4,1.7136406E3,2.7654736E3,2.7815938E3,3.2666484E3,4.196875E1,8.976953E1,1.0241012E3,9.0068945E2,1.7739531E3,1.0541357E3,1.1172404E3,3.141289E3,0E0,0E0,0E0,0E0,0E0,0E0,0E0,0E0,0E0,0E0,0E0,0E0,0E0,0E0,0E0,0E0],"parents":[2147483647,0,0,1,1,2,2,3,3,4,4,5,5,6,6,7,7,8,8,9,9,10,10,11,11,12,12,13,13,14,14],"right_children":[2,4,6,8,10,12,14,16,18,20,22,24,26,28,30,-1,-1,-1,-1,-1,-1,-1,-1,-1,-1,-1,-1,-1,-1,-1,-1],"split_conditions":[5.0366665E1,2.41E1,4E0,2.03E1,1E1,9.2E1,3.1578946E-1,3.7E1,1.1030303E-1,4.0366665E1,2.6086956E-1,6.928571E1,8E0,6.9375E-2,1E1,-5.5415994E-1,-1.0021758E-1,-4.6055588E-1,-3.9521763E-1,-1.006394E-1,5.3683717E-2,-5.3349394E-1,-2.0426165E-1,1.0176796E0,7.885298E-1,1.3672666E-1,6.136347E-1,-6.653908E-1,1.24535225E-1,3.8950202E-1,5.526174E-1],"split_indices":[9,9,0,9,0,6,11,5,10,9,11,8,4,10,0,0,0,0,0,0,0,0,0,0,0,0,0,0,0,0,0],"split_type":[0,0,0,0,0,0,0,0,0,0,0,0,0,0,0,0,0,0,0,0,0,0,0,0,0,0,0,0,0,0,0],"sum_hessian":[4.93E3,3.021E3,1.909E3,1.799E3,1.222E3,6.5E2,1.259E3,1.171E3,6.28E2,6.15E2,6.07E2,5.44E2,1.06E2,4.6E1,1.213E3,1.17E3,1E0,5.05E2,1.23E2,4.77E2,1.38E2,2.1E1,5.86E2,1.27E2,4.17E2,1.4E1,9.2E1,4E0,4.2E1,5.92E2,6.21E2],"tree_param":{"num_deleted":"0","num_feature":"12","num_nodes":"31","size_leaf_vector":"1"}},{"base_weights":[-5.088576E-2,-6.963649E0,1.08350935E1,-9.821644E0,-2.7399213E0,1.4454846E1,8.915324E0,-1.0509237E1,-8.613809E0,-2.517573E0,-1.0526675E1,1.1558252E1,1.7632753E1,3.1127474E0,9.27718E0,-5.617204E-1,-5.1460946E-1,-4.4929394E-1,-3.2425028E-1,-6.308958E-2,-1.8603346E-1,-5.9615016E-1,-1.6131936E-2,5.8860775E-2,6.2193644E-1,1.15351E0,7.8484315E-1,2.3752864E-1,-2.8726158E-1,4.7241017E-1,-1.0586107E-1],"categories":[],"categories_nodes":[],"categories_segments":[],"categories_sizes":[],"default_left":[0,0,0,0,0,0,0,0,0,0,0,0,0,0,0,0,0,0,0,0,0,0,0,0,0,0,0,0,0,0,0],"id":15,"left_children":[1,3,5,7,9,11,13,15,17,19,21,23,25,27,29,-1,-1,-1,-1,-1,-1,-1,-1,-1,-1,-1,-1,-1,-1,-1,-1],"loss_changes":[3.6542484E5,3.5825125E4,1.2977125E4,1.3802969E3,2.0511445E3,5.7979375E3,2.5642422E3,6.128125E1,4.5498438E2,1.7599502E3,4.6634302E2,3.1296016E3,2.8905E3,1.1008718E3,2.2844062E3,0E0,0E0,0E0,0E0,0E0,0E0,0E0,0E0,0E0,0E0,0E0,0E0,0E0,0E0,0E0,0E0],"parents":[2147483647,0,0,1,1,2,2,3,3,4,4,5,5,6,6,7,7,8,8,9,9,10,10,11,11,12,12,13,13,14,14],"right_children":[2,4,6,8,10,12,14,16,18,20,22,24,26,28,30,-1,-1,-1,-1,-1,-1,-1,-1,-1,-1,-1,-1,-1,-1,-1,-1],"split_conditions":[4.642857E1,2.5857143E1,4E0,2.0285715E1,8.5E-1,7.3E1,3.4375E-1,2E0,1.1238095E-1,1E1,4.6E1,3E0,6.957143E1,3.3333334E-1,8.125E-1,-5.617204E-1,-5.1460946E-1,-4.4929394E-1,-3.2425028E-1,-6.308958E-2,-1.8603346E-1,-5.9615016E-1,-1.6131936E-2,5.8860775E-2,6.2193644E-1,1.15351E0,7.8484315E-1,2.3752864E-1,-2.8726158E-1,4.7241017E-1,-1.0586107E-1],"split_indices":[8,8,0,8,11,7,11,0,10,0,7,0,8,11,11,0,0,0,0,0,0,0,0,0,0,0,0,0,0,0,0],"split_type":[0,0,0,0,0,0,0,0,0,0,0,0,0,0,0,0,0,0,0,0,0,0,0,0,0,0,0,0,0,0,0],"sum_hessian":[4.854E3,2.969E3,1.885E3,1.77E3,1.199E3,6.51E2,1.234E3,1.123E3,6.47E2,1.167E3,3.2E1,3.43E2,3.08E2,7.3E1,1.161E3,2.47E2,8.76E2,5.48E2,9.9E1,5.72E2,5.95E2,2.8E1,4E0,2.7E1,3.16E2,7.8E1,2.3E2,6.2E1,1.1E1,1.144E3,1.7E1],"tree_param":{"num_deleted":"0","num_feature":"12","num_nodes":"31","size_leaf_vector":"1"}},{"base_weights":[2.019133E-1,-6.406402E0,1.0649339E1,-9.321769E0,-2.1811433E0,1.4713492E1,8.634423E0,-9.970202E0,-7.998111E0,-8.789108E-1,-3.5537684E0,1.5872007E1,1.1068279E1,7.0790086E0,1.0198312E1,-5.1841134E-1,-4.7753152E-1,-4.0497756E-1,2.745139E-1,-5.656944E-2,1.6058934E-1,-2.2598079E-1,-1.2864028E-1,8.376908E-1,4.5557472E-1,2.6802537E-1,6.677273E-1,-3.511424E-1,3.6227608E-1,9.121941E-1,4.9325234E-1],"categories":[],"categories_nodes":[],"categories_segments":[],"categories_sizes":[],"default_left":[0,0,0,0,0,0,0,0,0,0,0,0,0,0,0,0,0,0,0,0,0,0,0,0,0,0,0,0,0,0,0],"id":16,"left_children":[1,3,5,7,9,11,13,15,17,19,21,23,25,27,29,-1,-1,-1,-1,-1,-1,-1,-1,-1,-1,-1,-1,-1,-1,-1,-1],"loss_changes":[3.3891597E5,3.702042E4,1.5448297E4,1.4471875E3,2.193686E3,2.4806094E3,3.0268047E3,9.9703125E1,8.517422E2,6.563705E2,5.549531E2,2.6790469E3,1.951084E3,1.5583926E3,1.5172969E3,0E0,0E0,0E0,0E0,0E0,0E0,0E0,0E0,0E0,0E0,0E0,0E0,0E0,0E0,0E0,0E0],"parents":[2147483647,0,0,1,1,2,2,3,3,4,4,5,5,6,6,7,7,8,8,9,9,10,10,11,11,12,12,13,13,14,14],"right_children":[2,4,6,8,10,12,14,16,18,20,22,24,26,28,30,-1,-1,-1,-1,-1,-1,-1,-1,-1,-1,-1,-1,-1,-1,-1,-1],"split_conditions":[5.0366665E1,3.01E1,4E0,2.0633333E1,1E1,8.6E1,1E1,1.8366667E1,1.1E1,5.8E1,3.3E1,9.5E1,7.385714E1,2.6E1,5.2142857E1,-5.1841134E-1,-4.7753152E-1,-4.0497756E-1,2.745139E-1,-5.656944E-2,1.6058934E-1,-2.2598079E-1,-1.2864028E-1,8.376908E-1,4.5557472E-1,2.6802537E-1,6.677273E-1,-3.511424E-1,3.6227608E-1,9.121941E-1,4.9325234E-1],"split_indices":[9,9,0,9,0,6,0,9,0,6,7,5,8,6,8,0,0,0,0,0,0,0,0,0,0,0,0,0,0,0,0],"split_type":[0,0,0,0,0,0,0,0,0,0,0,0,0,0,0,0,0,0,0,0,0,0,0,0,0,0,0,0,0,0,0],"sum_hessian":[4.907E3,3.006E3,1.901E3,1.778E3,1.228E3,6.28E2,1.273E3,1.189E3,5.89E2,6.31E2,5.97E2,4.74E2,1.54E2,6.41E2,6.32E2,5.98E2,5.91E2,5.85E2,4E0,5.95E2,3.6E1,2.99E2,2.98E2,4.18E2,5.6E1,4.5E1,1.09E2,7E0,6.34E2,2.3E1,6.09E2],"tree_param":{"num_deleted":"0","num_feature":"12","num_nodes":"31","size_leaf_vector":"1"}},{"base_weights":[2.59694E-2,-6.193376E0,1.0038802E1,-8.9162035E0,-2.264214E0,8.119153E0,1.3997158E1,-9.470265E0,-7.759354E0,-2.7518427E0,7.0579045E-2,8.540013E0,3.5928116E0,1.4472442E1,6.874434E0,-4.9491364E-1,-4.5366383E-1,-4.043469E-1,-3.42728E-1,-1.1628E-1,-2.2603689E-1,5.718282E-2,-2.242589E-1,3.1023386E-1,4.651611E-1,-3.356336E-1,2.2377749E-1,9.367884E-1,6.729057E-1,-2.5068843E-1,4.1673085E-1],"categories":[],"categories_nodes":[],"categories_segments":[],"categories_sizes":[],"default_left":[0,0,0,0,0,0,0,0,0,0,0,0,0,0,0,0,0,0,0,0,0,0,0,0,0,0,0,0,0,0,0],"id":17,"left_children":[1,3,5,7,9,11,13,15,17,19,21,23,25,27,29,-1,-1,-1,-1,-1,-1,-1,-1,-1,-1,-1,-1,-1,-1,-1,-1],"loss_changes":[3.037689E5,3.217139E4,1.408825E4,1.0655E3,1.40398E3,2.3714688E3,1.9621641E3,1.13578125E2,1.1677344E2,7.585449E2,1.0513069E3,1.9973281E3,1.02162036E3,2.2127578E3,7.3614575E2,0E0,0E0,0E0,0E0,0E0,0E0,0E0,0E0,0E0,0E0,0E0,0E0,0E0,0E0,0E0,0E0],"parents":[2147483647,0,0,1,1,2,2,3,3,4,4,5,5,6,6,7,7,8,8,9,9,10,10,11,11,12,12,13,13,14,14],"right_children":[2,4,6,8,10,12,14,16,18,20,22,24,26,28,30,-1,-1,-1,-1,-1,-1,-1,-1,-1,-1,-1,-1,-1,-1,-1,-1],"split_conditions":[5.0366665E1,2.41E1,7E1,2.0833334E1,3.89E1,1.3625E-1,1.3259259E-1,1.8333334E1,1.0714286E-1,1.2541667E-1,1.275E-1,8.310345E-2,6E0,6.928571E1,7.13E1,-4.9491364E-1,-4.5366383E-1,-4.043469E-1,-3.42728E-1,-1.1628E-1,-2.2603689E-1,5.718282E-2,-2.242589E-1,3.1023386E-1,4.651611E-1,-3.356336E-1,2.2377749E-1,9.367884E-1,6.729057E-1,-2.5068843E-1,4.1673085E-1],"split_indices":[9,9,9,9,9,10,10,9,10,10,10,10,4,8,9,0,0,0,0,0,0,0,0,0,0,0,0,0,0,0,0],"split_type":[0,0,0,0,0,0,0,0,0,0,0,0,0,0,0,0,0,0,0,0,0,0,0,0,0,0,0,0,0,0,0],"sum_hessian":[4.876E3,3.008E3,1.868E3,1.776E3,1.232E3,1.26E3,6.08E2,1.196E3,5.8E2,1.019E3,2.13E2,1.152E3,1.08E2,5.69E2,3.9E1,5.64E2,6.32E2,4.2E2,1.6E2,8.23E2,1.96E2,1.73E2,4E1,2.86E2,8.66E2,8E0,1E2,1.06E2,4.63E2,4E0,3.5E1],"tree_param":{"num_deleted":"0","num_feature":"12","num_nodes":"31","size_leaf_vector":"1"}},{"base_weights":[-1.0916429E-1,-5.955944E0,9.325188E0,-8.553296E0,-2.2599018E0,1.3537451E1,7.167706E0,-9.036781E0,-7.4337325E0,-8.381503E0,-2.0516405E0,7.809226E0,1.4514696E1,5.7861614E0,8.513751E0,-4.5514703E-1,-3.5142753E-1,-3.8777834E-1,-2.990243E-1,-2.2177365E-1,-6.15153E-1,-5.2954197E-2,-1.532778E-1,-5.2136075E-1,4.258616E-1,7.4151975E-1,2.241456E-1,2.9685372E-1,-4.1280493E-1,4.480636E-1,-2.1129116E-2],"categories":[],"categories_nodes":[],"categories_segments":[],"categories_sizes":[],"default_left":[0,0,0,0,0,0,0,0,0,0,0,0,0,0,0,0,0,0,0,0,0,0,0,0,0,0,0,0,0,0,0],"id":18,"left_children":[1,3,5,7,9,11,13,15,17,19,21,23,25,27,29,-1,-1,-1,-1,-1,-1,-1,-1,-1,-1,-1,-1,-1,-1,-1,-1],"loss_changes":[2.716111E5,2.9164438E4,1.7024516E4,8.9903125E2,1.5840679E3,3.4525078E3,2.271543E3,1.0103906E2,2.0804883E2,5.798882E2,1.220498E3,1.3154038E3,1.6532031E3,1.3607773E3,2.5232812E3,0E0,0E0,0E0,0E0,0E0,0E0,0E0,0E0,0E0,0E0,0E0,0E0,0E0,0E0,0E0,0E0],"parents":[2147483647,0,0,1,1,2,2,3,3,4,4,5,5,6,6,7,7,8,8,9,9,10,10,11,11,12,12,13,13,14,14],"right_children":[2,4,6,8,10,12,14,16,18,20,22,24,26,28,30,-1,-1,-1,-1,-1,-1,-1,-1,-1,-1,-1,-1,-1,-1,-1,-1],"split_conditions":[4.5233334E1,2.41E1,4E0,2.1233334E1,2.6086956E-1,4.2307693E-1,1E1,2.1857143E1,1.1030303E-1,9.653846E-2,3E0,4E1,7.741935E-1,8.4E-1,7.419355E-1,-4.5514703E-1,-3.5142753E-1,-3.8777834E-1,-2.990243E-1,-2.2177365E-1,-6.15153E-1,-5.2954197E-2,-1.532778E-1,-5.2136075E-1,4.258616E-1,7.4151975E-1,2.241456E-1,2.9685372E-1,-4.1280493E-1,4.480636E-1,-2.1129116E-2],"split_indices":[9,9,0,9,11,11,0,8,10,10,0,6,11,11,11,0,0,0,0,0,0,0,0,0,0,0,0,0,0,0,0],"split_type":[0,0,0,0,0,0,0,0,0,0,0,0,0,0,0,0,0,0,0,0,0,0,0,0,0,0,0,0,0,0,0],"sum_hessian":[4.922E3,3.039E3,1.883E3,1.784E3,1.255E3,6.36E2,1.247E3,1.241E3,5.43E2,4E1,1.215E3,9.4E1,5.42E2,6.18E2,6.29E2,1.198E3,4.3E1,4.41E2,1.02E2,2.1E1,1.9E1,6.15E2,6E2,3E0,9.1E1,5.25E2,1.7E1,6.12E2,6E0,5.99E2,3E1],"tree_param":{"num_deleted":"0","num_feature":"12","num_nodes":"31","size_leaf_vector":"1"}},{"base_weights":[3.6923442E-2,-5.7239347E0,8.761943E0,-7.994119E0,-2.4782112E0,6.7311225E0,1.2293271E1,-8.635123E0,-6.872646E0,-1.4580437E0,-3.4858303E0,5.2253E0,8.094891E0,1.4653063E1,1.09143E1,-4.5298877E-1,-4.1443872E-1,-4.0039906E-1,-3.363801E-1,-8.28488E-2,1.9173627E-1,-1.2572749E-1,-2.1137837E-1,2.4401665E-1,6.542775E-1,4.1910535E-1,-1.8366398E-2,7.8364605E-1,4.9535808E-1,3.1978764E-2,5.573978E-1],"categories":[],"categories_nodes":[],"categories_segments":[],"categories_sizes":[],"default_left":[0,0,0,0,0,0,0,0,0,0,0,0,0,0,0,0,0,0,0,0,0,0,0,0,0,0,0,0,0,0,0],"id":19,"left_children":[1,3,5,7,9,11,13,15,17,19,21,23,25,27,29,-1,-1,-1,-1,-1,-1,-1,-1,-1,-1,-1,-1,-1,-1,-1,-1],"loss_changes":[2.434265E5,2.147379E4,1.3729547E4,1.1742266E3,1.230502E3,2.4733477E3,2.1244453E3,8.492969E1,4.970117E1,6.370427E2,4.245122E2,1.5223809E3,1.5610195E3,1.0838047E3,1.0660078E3,0E0,0E0,0E0,0E0,0E0,0E0,0E0,0E0,0E0,0E0,0E0,0E0,0E0,0E0,0E0,0E0],"parents":[2147483647,0,0,1,1,2,2,3,3,4,4,5,5,6,6,7,7,8,8,9,9,10,10,11,11,12,12,13,13,14,14],"right_children":[2,4,6,8,10,12,14,16,18,20,22,24,26,28,30,-1,-1,-1,-1,-1,-1,-1,-1,-1,-1,-1,-1,-1,-1,-1,-1],"split_conditions":[4.34E1,2.41E1,6.663333E1,1.9933332E1,3E0,5.9E1,7.142857E1,1.8133333E1,9E0,5.9E1,3.3E1,7.142857E1,9.2E1,4E0,4.6E1,-4.5298877E-1,-4.1443872E-1,-4.0039906E-1,-3.363801E-1,-8.28488E-2,1.9173627E-1,-1.2572749E-1,-2.1137837E-1,2.4401665E-1,6.542775E-1,4.1910535E-1,-1.8366398E-2,7.8364605E-1,4.9535808E-1,3.1978764E-2,5.573978E-1],"split_indices":[9,9,9,9,0,7,8,9,0,6,9,8,6,0,6,0,0,0,0,0,0,0,0,0,0,0,0,0,0,0,0],"split_type":[0,0,0,0,0,0,0,0,0,0,0,0,0,0,0,0,0,0,0,0,0,0,0,0,0,0,0,0,0,0,0],"sum_hessian":[4.841E3,2.916E3,1.925E3,1.715E3,1.201E3,1.224E3,7.01E2,1.087E3,6.28E2,5.98E2,6.03E2,5.84E2,6.4E2,2.55E2,4.46E2,4.77E2,6.1E2,6.5E1,5.63E2,5.77E2,2.1E1,2.63E2,3.4E2,5.61E2,2.3E1,6.19E2,2.1E1,2.08E2,4.7E1,1E1,4.36E2],"tree_param":{"num_deleted":"0","num_feature":"12","num_nodes":"31","size_leaf_vector":"1"}},{"base_weights":[4.714815E-2,-5.422122E0,8.734137E0,-7.7160034E0,-1.9736928E0,1.1523985E1,7.3171716E0,-8.189322E0,-6.709634E0,-8.333919E-1,-3.0759883E0,8.959767E0,1.404261E1,-2.6427243E0,7.435081E0,-4.477531E-1,-4.0007588E-1,-3.3790457E-1,5.155159E-1,-9.369645E-2,2.9078603E-2,-9.7876966E-2,-2.0753883E-1,1.1944349E-1,5.008487E-1,8.206319E-1,5.6064886E-1,-7.623736E-3,-4.7263962E-1,3.2353207E-1,4.1904274E-1],"categories":[],"categories_nodes":[],"categories_segments":[],"categories_sizes":[],"default_left":[0,0,0,0,0,0,0,0,0,0,0,0,0,0,0,0,0,0,0,0,0,0,0,0,0,0,0,0,0,0,0],"id":20,"left_children":[1,3,5,7,9,11,13,15,17,19,21,23,25,27,29,-1,-1,-1,-1,-1,-1,-1,-1,-1,-1,-1,-1,-1,-1,-1,-1],"loss_changes":[2.2553689E5,2.3027438E4,7.1656875E3,7.7815625E2,1.4617817E3,3.8525E3,1.451207E3,9.875781E1,5.356621E2,8.46203E2,7.035156E2,2.1156816E3,1.8882109E3,2.5294022E2,1.0448984E3,0E0,0E0,0E0,0E0,0E0,0E0,0E0,0E0,0E0,0E0,0E0,0E0,0E0,0E0,0E0,0E0],"parents":[2147483647,0,0,1,1,2,2,3,3,4,4,5,5,6,6,7,7,8,8,9,9,10,10,11,11,12,12,13,13,14,14],"right_children":[2,4,6,8,10,12,14,16,18,20,22,24,26,28,30,-1,-1,-1,-1,-1,-1,-1,-1,-1,-1,-1,-1,-1,-1,-1,-1],"split_conditions":[4.5233334E1,3.01E1,4E0,2.1E1,3E0,7.3E1,2.6E1,2E0,3.6E1,4E0,3.3266666E1,5.4E1,7.428571E1,1E1,1E1,-4.477531E-1,-4.0007588E-1,-3.3790457E-1,5.155159E-1,-9.369645E-2,2.9078603E-2,-9.7876966E-2,-2.0753883E-1,1.1944349E-1,5.008487E-1,8.206319E-1,5.6064886E-1,-7.623736E-3,-4.7263962E-1,3.2353207E-1,4.1904274E-1],"split_indices":[9,9,0,8,0,7,5,0,7,1,9,5,8,0,0,0,0,0,0,0,0,0,0,0,0,0,0,0,0,0,0],"split_type":[0,0,0,0,0,0,0,0,0,0,0,0,0,0,0,0,0,0,0,0,0,0,0,0,0,0,0,0,0,0,0],"sum_hessian":[4.745E3,2.912E3,1.833E3,1.748E3,1.164E3,6.15E2,1.218E3,1.184E3,5.64E2,5.73E2,5.91E2,3.07E2,3.08E2,1.4E1,1.204E3,2.24E2,9.6E2,5.63E2,1E0,3.3E2,2.43E2,2.91E2,3E2,4.3E1,2.64E2,1.65E2,1.43E2,1.1E1,3E0,6E2,6.04E2],"tree_param":{"num_deleted":"0","num_feature":"12","num_nodes":"31","size_leaf_vector":"1"}},{"base_weights":[-1.6457334E-1,-5.1566153E0,7.757208E0,-7.309999E0,-1.8915031E0,1.0121946E1,6.4601226E0,-7.80094E0,-6.440286E0,-9.042105E0,-1.6482059E0,-1.23753145E-1,1.1024706E1,6.6896544E0,-4.8977908E-1,-4.086134E-1,-3.746955E-1,-3.3955282E-1,-2.2092922E-1,2.1989537E-2,-5.224718E-1,-1.9270249E-2,-1.3829695E-1,9.200541E-1,-7.7318035E-2,6.1727244E-1,3.69694E-1,-2.5094934E-3,3.450618E-1,1.5087022E-1,-3.2681227E-1],"categories":[],"categories_nodes":[],"categories_segments":[],"categories_sizes":[],"default_left":[0,0,0,0,0,0,0,0,0,0,0,0,0,0,0,0,0,0,0,0,0,0,0,0,0,0,0,0,0,0,0],"id":21,"left_children":[1,3,5,7,9,11,13,15,17,19,21,23,25,27,29,-1,-1,-1,-1,-1,-1,-1,-1,-1,-1,-1,-1,-1,-1,-1,-1],"loss_changes":[1.9314247E5,2.1051164E4,5.725617E3,7.2046094E2,2.0588442E3,6.1707188E3,1.9526367E3,6.975E1,4.3590625E2,5.250178E2,1.6277754E3,1.477901E3,2.8482969E3,1.6873438E3,8.6796515E2,0E0,0E0,0E0,0E0,0E0,0E0,0E0,0E0,0E0,0E0,0E0,0E0,0E0,0E0,0E0,0E0],"parents":[2147483647,0,0,1,1,2,2,3,3,4,4,5,5,6,6,7,7,8,8,9,9,10,10,11,11,12,12,13,13,14,14],"right_children":[2,4,6,8,10,12,14,16,18,20,22,24,26,28,30,-1,-1,-1,-1,-1,-1,-1,-1,-1,-1,-1,-1,-1,-1,-1,-1],"split_conditions":[4.442857E1,2.5857143E1,4E0,2.0571428E1,2.6086956E-1,3E0,7.741935E-1,1.8E1,1.1238095E-1,1.3333334E-1,1E1,2.7E1,8.4E1,3.5E1,1.1857143E-1,-4.086134E-1,-3.746955E-1,-3.3955282E-1,-2.2092922E-1,2.1989537E-2,-5.224718E-1,-1.9270249E-2,-1.3829695E-1,9.200541E-1,-7.7318035E-2,6.1727244E-1,3.69694E-1,-2.5094934E-3,3.450618E-1,1.5087022E-1,-3.2681227E-1],"split_indices":[8,8,0,8,11,0,11,8,10,11,0,6,6,6,10,0,0,0,0,0,0,0,0,0,0,0,0,0,0,0,0],"split_type":[0,0,0,0,0,0,0,0,0,0,0,0,0,0,0,0,0,0,0,0,0,0,0,0,0,0,0,0,0,0,0],"sum_hessian":[4.882E3,2.995E3,1.887E3,1.804E3,1.191E3,6.66E2,1.221E3,1.148E3,6.56E2,3.8E1,1.153E3,5.4E1,6.12E2,1.182E3,3.9E1,5.08E2,6.4E2,5.57E2,9.9E1,5E0,3.3E1,5.42E2,6.11E2,3E0,5.1E1,4.47E2,1.65E2,3.6E1,1.146E3,2.5E1,1.4E1],"tree_param":{"num_deleted":"0","num_feature":"12","num_nodes":"31","size_leaf_vector":"1"}},{"base_weights":[-9.2874475E-2,-4.858099E0,7.512566E0,-6.852118E0,-1.9244092E0,1.0142254E1,6.156305E0,-7.3151984E0,-5.814989E0,-4.0245667E0,-1.4706132E0,1.0488555E1,2.0069056E0,3.8655155E0,6.769973E0,-3.6950827E-1,-2.6458785E-1,4.456955E-1,-2.929027E-1,-2.3589948E-1,1.8128967E-2,-3.2746475E-2,-1.6904242E-1,3.7412032E-1,5.823085E-1,-3.6147508E-1,3.1382096E-1,3.6210534E-1,1.357325E-1,3.526269E-1,1.0650785E-1],"categories":[],"categories_nodes":[],"categories_segments":[],"categories_sizes":[],"default_left":[0,0,0,0,0,0,0,0,0,0,0,0,0,0,0,0,0,0,0,0,0,0,0,0,0,0,0,0,0,0,0],"id":22,"left_children":[1,3,5,7,9,11,13,15,17,19,21,23,25,27,29,-1,-1,-1,-1,-1,-1,-1,-1,-1,-1,-1,-1,-1,-1,-1,-1],"loss_changes":[1.7490238E5,1.7343273E4,6.5677656E3,8.05625E2,1.1396387E3,1.7566562E3,1.7015391E3,1.455039E2,4.0108594E2,6.4968823E2,1.540352E3,2.0182344E3,1.1101194E3,9.9847266E2,1.2540742E3,0E0,0E0,0E0,0E0,0E0,0E0,0E0,0E0,0E0,0E0,0E0,0E0,0E0,0E0,0E0,0E0],"parents":[2147483647,0,0,1,1,2,2,3,3,4,4,5,5,6,6,7,7,8,8,9,9,10,10,11,11,12,12,13,13,14,14],"right_children":[2,4,6,8,10,12,14,16,18,20,22,24,26,28,30,-1,-1,-1,-1,-1,-1,-1,-1,-1,-1,-1,-1,-1,-1,-1,-1],"split_conditions":[5.0366665E1,2.6857143E1,4E0,2.1233334E1,7.454546E-2,1.38E-1,8.15E-2,2.1857143E1,3E0,5E1,1.20714284E-1,8.9E-2,1.4E1,4.9E1,1.425E-1,-3.6950827E-1,-2.6458785E-1,4.456955E-1,-2.929027E-1,-2.3589948E-1,1.8128967E-2,-3.2746475E-2,-1.6904242E-1,3.7412032E-1,5.823085E-1,-3.6147508E-1,3.1382096E-1,3.6210534E-1,1.357325E-1,3.526269E-1,1.0650785E-1],"split_indices":[9,8,0,9,10,10,10,8,0,5,10,10,4,6,10,0,0,0,0,0,0,0,0,0,0,0,0,0,0,0,0],"split_type":[0,0,0,0,0,0,0,0,0,0,0,0,0,0,0,0,0,0,0,0,0,0,0,0,0,0,0,0,0,0,0],"sum_hessian":[4.824E3,2.966E3,1.858E3,1.765E3,1.201E3,6.3E2,1.228E3,1.216E3,5.49E2,2.12E2,9.89E2,6.04E2,2.6E1,2.61E2,9.67E2,1.17E3,4.6E1,1E0,5.48E2,1.83E2,2.9E1,6.94E2,2.95E2,1.7E2,4.34E2,8E0,1.8E1,6.5E1,1.96E2,9.11E2,5.6E1],"tree_param":{"num_deleted":"0","num_feature":"12","num_nodes":"31","size_leaf_vector":"1"}},{"base_weights":[-1.3281953E-1,-4.662735E0,6.9946394E0,-6.5829616E0,-1.7760189E0,5.416931E0,9.732783E0,-6.6001477E0,5.9804934E-1,-8.732255E0,-1.6427889E0,5.7723203E0,9.356655E-1,9.932801E0,-4.78167E0,-3.5364804E-1,-2.948761E-1,8.268579E-3,-5.679466E-1,-7.343091E-2,-3.0174652E-1,-4.2250413E-2,3.020272E-1,3.8534388E-1,-9.148797E-2,3.9457998E-1,5.6092405E-1,4.2406198E-2,-4.33811E-1],"categories":[],"categories_nodes":[],"categories_segments":[],"categories_sizes":[],"default_left":[0,0,0,0,0,0,0,0,0,0,0,0,0,0,0,0,0,0,0,0,0,0,0,0,0,0,0,0,0],"id":23,"left_children":[1,3,5,7,9,11,13,15,-1,17,19,21,23,25,27,-1,-1,-1,-1,-1,-1,-1,-1,-1,-1,-1,-1,-1,-1],"loss_changes":[1.562038E5,1.638495E4,8.068867E3,6.449375E2,1.0820344E3,1.89775E3,2.039043E3,5.4796875E2,0E0,5.160447E2,8.8004614E2,1.9699453E3,1.6806515E3,1.6881484E3,2.2661365E2,0E0,0E0,0E0,0E0,0E0,0E0,0E0,0E0,0E0,0E0,0E0,0E0,0E0,0E0],"parents":[2147483647,0,0,1,1,2,2,3,3,4,4,5,5,6,6,7,7,9,9,10,10,11,11,12,12,13,13,14,14],"right_children":[2,4,6,8,10,12,14,16,-1,18,20,22,24,26,28,-1,-1,-1,-1,-1,-1,-1,-1,-1,-1,-1,-1,-1,-1],"split_conditions":[4.34E1,3.01E1,6.7433334E1,3.8E1,2.2727273E-1,7.3333335E-1,7.916667E-1,1.9666666E1,5.9804934E-1,6.888889E-2,1.55E-1,3.5E1,5.7766666E1,5.151515E-1,5.8E1,-3.5364804E-1,-2.948761E-1,8.268579E-3,-5.679466E-1,-7.343091E-2,-3.0174652E-1,-4.2250413E-2,3.020272E-1,3.8534388E-1,-9.148797E-2,3.9457998E-1,5.6092405E-1,4.2406198E-2,-4.33811E-1],"split_indices":[9,9,9,7,11,11,11,9,0,10,10,6,9,11,5,0,0,0,0,0,0,0,0,0,0,0,0,0,0],"split_type":[0,0,0,0,0,0,0,0,0,0,0,0,0,0,0,0,0,0,0,0,0,0,0,0,0,0,0,0,0],"sum_hessian":[4.836E3,2.957E3,1.879E3,1.775E3,1.182E3,1.194E3,6.85E2,1.774E3,1E0,2.1E1,1.161E3,1.106E3,8.8E1,6.76E2,9E0,1.055E3,7.19E2,5E0,1.6E1,1.118E3,4.3E1,4.3E1,1.063E3,2.5E1,6.3E1,2.64E2,4.12E2,4E0,5E0],"tree_param":{"num_deleted":"0","num_feature":"12","num_nodes":"29","size_leaf_vector":"1"}},{"base_weights":[-2.3216134E-2,-4.3914447E0,7.022777E0,-6.2584195E0,-1.7156695E0,9.692475E0,5.7035675E0,-6.6999245E0,-5.432414E0,-2.1587822E0,4.536428E-1,1.0081955E1,3.5157777E-2,-1.479409E0,5.904303E0,-3.50291E-1,-3.185192E-1,-2.3260441E-1,-2.8966007E-1,-1.8761154E-1,-9.1039725E-2,1.14431255E-1,-9.370964E-2,3.4382102E-1,5.64287E-1,-4.4842964E-1,1.6752392E-1,-2.8043464E-1,6.0778137E-2,2.3580256E-1,3.5013255E-1],"categories":[],"categories_nodes":[],"categories_segments":[],"categories_sizes":[],"default_left":[0,0,0,0,0,0,0,0,0,0,0,0,0,0,0,0,0,0,0,0,0,0,0,0,0,0,0,0,0,0,0],"id":24,"left_children":[1,3,5,7,9,11,13,15,17,19,21,23,25,27,29,-1,-1,-1,-1,-1,-1,-1,-1,-1,-1,-1,-1,-1,-1,-1,-1],"loss_changes":[1.5087631E5,1.5105965E4,6.551797E3,6.1346875E2,1.1977351E3,2.3279062E3,1.8226172E3,7.2E1,1.4928906E2,5.500454E2,9.0985516E2,2.2183672E3,7.763071E2,3.963083E2,1.5644336E3,0E0,0E0,0E0,0E0,0E0,0E0,0E0,0E0,0E0,0E0,0E0,0E0,0E0,0E0,0E0,0E0],"parents":[2147483647,0,0,1,1,2,2,3,3,4,4,5,5,6,6,7,7,8,8,9,9,10,10,11,11,12,12,13,13,14,14],"right_children":[2,4,6,8,10,12,14,16,18,20,22,24,26,28,30,-1,-1,-1,-1,-1,-1,-1,-1,-1,-1,-1,-1,-1,-1,-1,-1],"split_conditions":[5.0366665E1,2.41E1,4E0,2.03E1,3.89E1,1.3625E-1,3.3E1,1.8366667E1,9.6875E-2,7.454546E-2,4.4E1,8.8E-2,4E0,2.6E1,1E1,-3.50291E-1,-3.185192E-1,-2.3260441E-1,-2.8966007E-1,-1.8761154E-1,-9.1039725E-2,1.14431255E-1,-9.370964E-2,3.4382102E-1,5.64287E-1,-4.4842964E-1,1.6752392E-1,-2.8043464E-1,6.0778137E-2,2.3580256E-1,3.5013255E-1],"split_indices":[9,9,0,9,9,10,5,9,10,10,5,10,3,5,0,0,0,0,0,0,0,0,0,0,0,0,0,0,0,0,0],"split_type":[0,0,0,0,0,0,0,0,0,0,0,0,0,0,0,0,0,0,0,0,0,0,0,0,0,0,0,0,0,0,0],"sum_hessian":[4.9E3,3.025E3,1.875E3,1.781E3,1.244E3,6.18E2,1.257E3,1.156E3,6.25E2,1.033E3,2.11E2,5.94E2,2.4E1,3.4E1,1.223E3,5.89E2,5.67E2,2.02E2,4.23E2,1.79E2,8.54E2,1.18E2,9.3E1,1.64E2,4.3E2,6E0,1.8E1,1.3E1,2.1E1,5.9E2,6.33E2],"tree_param":{"num_deleted":"0","num_feature":"12","num_nodes":"31","size_leaf_vector":"1"}},{"base_weights":[9.552989E-2,-4.0829053E0,7.032956E0,-5.8936687E0,-1.4708577E0,9.8999E0,5.5748787E0,-6.3707957E0,-5.1885176E0,-6.3607526E0,-1.1792856E0,7.6501064E0,1.1833358E1,2.8815968E0,6.250082E0,-2.760092E-1,-3.23482E-1,-2.2536376E-1,-2.7582192E-1,-3.6285007E-1,7.4615076E-2,-3.202379E-2,-1.6998385E-1,3.9490107E-1,-5.963166E-1,4.0605688E-1,6.801361E-1,-4.855983E-1,1.6455409E-1,3.324633E-1,9.157597E-2],"categories":[],"categories_nodes":[],"categories_segments":[],"categories_sizes":[],"default_left":[0,0,0,0,0,0,0,0,0,0,0,0,0,0,0,0,0,0,0,0,0,0,0,0,0,0,0,0,0,0,0],"id":25,"left_children":[1,3,5,7,9,11,13,15,17,19,21,23,25,27,29,-1,-1,-1,-1,-1,-1,-1,-1,-1,-1,-1,-1,-1,-1,-1,-1],"loss_changes":[1.4143016E5,1.439357E4,7.6113438E3,5.71875E2,1.7718438E3,2.5933516E3,2.1969336E3,5.4085938E1,1.384375E2,5.0351E2,1.4083411E3,1.4919395E3,2.0570586E3,1.3005538E3,1.7040195E3,0E0,0E0,0E0,0E0,0E0,0E0,0E0,0E0,0E0,0E0,0E0,0E0,0E0,0E0,0E0,0E0],"parents":[2147483647,0,0,1,1,2,2,3,3,4,4,5,5,6,6,7,7,8,8,9,9,10,10,11,11,12,12,13,13,14,14],"right_children":[2,4,6,8,10,12,14,16,18,20,22,24,26,28,30,-1,-1,-1,-1,-1,-1,-1,-1,-1,-1,-1,-1,-1,-1,-1,-1],"split_conditions":[5.2833332E1,2.41E1,4E0,1.9666666E1,2.9411766E-1,7.2E1,8.1E-2,9E-2,9.6875E-2,5.1E1,6.969697E-1,1.5272728E-1,4.814815E-1,2.962963E-1,7.3333335E-1,-2.760092E-1,-3.23482E-1,-2.2536376E-1,-2.7582192E-1,-3.6285007E-1,7.4615076E-2,-3.202379E-2,-1.6998385E-1,3.9490107E-1,-5.963166E-1,4.0605688E-1,6.801361E-1,-4.855983E-1,1.6455409E-1,3.324633E-1,9.157597E-2],"split_indices":[9,9,0,9,11,7,10,10,10,7,11,10,11,11,11,0,0,0,0,0,0,0,0,0,0,0,0,0,0,0,0],"split_type":[0,0,0,0,0,0,0,0,0,0,0,0,0,0,0,0,0,0,0,0,0,0,0,0,0,0,0,0,0,0,0],"sum_hessian":[4.877E3,3.044E3,1.833E3,1.797E3,1.247E3,6.16E2,1.217E3,1.067E3,7.3E2,6.9E1,1.178E3,2.87E2,3.29E2,2.45E2,9.72E2,1.17E2,9.5E2,2.42E2,4.88E2,6.2E1,7E0,9.49E2,2.29E2,2.84E2,3E0,1.08E2,2.21E2,7E0,2.38E2,8.91E2,8.1E1],"tree_param":{"num_deleted":"0","num_feature":"12","num_nodes":"31","size_leaf_vector":"1"}},{"base_weights":[-5.2335616E-2,-3.8770626E0,6.067256E0,-5.594251E0,-1.3281896E0,8.313466E0,4.938338E0,-6.0510483E0,-4.591384E0,-5.563358E0,-1.0719278E0,6.425617E0,1.0103315E1,-9.835204E-1,5.209482E0,-2.666329E-1,-3.094096E-1,-2.3208158E-1,5.861748E-1,-1.1208522E-1,-4.509197E-1,8.473015E-3,-1.05116665E-1,-9.293347E-3,3.5750905E-1,1.1478968E-1,5.54947E-1,9.3676366E-2,-5.1790494E-1,1.854495E-1,3.1455836E-1],"categories":[],"categories_nodes":[],"categories_segments":[],"categories_sizes":[],"default_left":[0,0,0,0,0,0,0,0,0,0,0,0,0,0,0,0,0,0,0,0,0,0,0,0,0,0,0,0,0,0,0],"id":26,"left_children":[1,3,5,7,9,11,13,15,17,19,21,23,25,27,29,-1,-1,-1,-1,-1,-1,-1,-1,-1,-1,-1,-1,-1,-1,-1,-1],"loss_changes":[1.1288612E5,1.2983191E4,4.662836E3,7.844414E2,1.2920701E3,2.0266562E3,1.9913477E3,8.671094E1,5.126787E2,7.6018066E2,1.4444974E3,1.457623E3,2.4309043E3,1.4925051E3,1.896748E3,0E0,0E0,0E0,0E0,0E0,0E0,0E0,0E0,0E0,0E0,0E0,0E0,0E0,0E0,0E0,0E0],"parents":[2147483647,0,0,1,1,2,2,3,3,4,4,5,5,6,6,7,7,8,8,9,9,10,10,11,11,12,12,13,13,14,14],"right_children":[2,4,6,8,10,12,14,16,18,20,22,24,26,28,30,-1,-1,-1,-1,-1,-1,-1,-1,-1,-1,-1,-1,-1,-1,-1,-1],"split_conditions":[5.0366665E1,3.01E1,4E0,2.1233334E1,2.9032257E-1,7.3E1,3.181818E-1,9.16E-2,3.8E1,3.7E1,5.4285717E-1,5.2E1,3.7931034E-1,7.5E1,5.7E1,-2.666329E-1,-3.094096E-1,-2.3208158E-1,5.861748E-1,-1.1208522E-1,-4.509197E-1,8.473015E-3,-1.05116665E-1,-9.293347E-3,3.5750905E-1,1.1478968E-1,5.54947E-1,9.3676366E-2,-5.1790494E-1,1.854495E-1,3.1455836E-1],"split_indices":[9,9,0,9,11,7,11,10,7,5,11,5,11,5,5,0,0,0,0,0,0,0,0,0,0,0,0,0,0,0,0],"split_type":[0,0,0,0,0,0,0,0,0,0,0,0,0,0,0,0,0,0,0,0,0,0,0,0,0,0,0,0,0,0,0],"sum_hessian":[4.821E3,2.967E3,1.854E3,1.772E3,1.195E3,6.18E2,1.236E3,1.214E3,5.58E2,6.7E1,1.128E3,3.03E2,3.15E2,5.4E1,1.182E3,2.01E2,1.013E3,5.57E2,1E0,3.5E1,3.2E1,5.12E2,6.16E2,3E1,2.73E2,3.6E1,2.79E2,4.2E1,1.2E1,4.97E2,6.85E2],"tree_param":{"num_deleted":"0","num_feature":"12","num_nodes":"31","size_leaf_vector":"1"}},{"base_weights":[-7.541271E-3,-3.9572492E0,5.6365776E0,-5.328454E0,-1.5840083E0,4.2914667E0,7.8487115E0,-5.4266477E0,-2.1789196E0,5.255055E0,-1.6608068E0,1.4140941E0,5.0425487E0,9.310636E0,6.389185E0,-2.719841E-1,4.4209346E-1,-1.5485549E-1,3.0709407E-1,-3.3705184E-1,4.1641885E-1,-1.6588983E-1,-5.9672303E-2,2.4603393E-2,2.0723884E-1,2.8546324E-1,1.4328277E-1,6.659535E-1,4.2649794E-1,3.3632383E-1,-1.1895541E-1],"categories":[],"categories_nodes":[],"categories_segments":[],"categories_sizes":[],"default_left":[0,0,0,0,0,0,0,0,0,0,0,0,0,0,0,0,0,0,0,0,0,0,0,0,0,0,0,0,0,0,0],"id":27,"left_children":[1,3,5,7,9,11,13,15,17,19,21,23,25,27,29,-1,-1,-1,-1,-1,-1,-1,-1,-1,-1,-1,-1,-1,-1,-1,-1],"loss_changes":[1.0943449E5,9.389684E3,5.9799414E3,5.541289E2,5.6494556E2,2.71375E3,1.5685352E3,3.7803516E2,4.5450653E2,4.985561E2,8.0762427E2,6.5761395E2,1.4321035E3,1.0723906E3,1.1546309E3,0E0,0E0,0E0,0E0,0E0,0E0,0E0,0E0,0E0,0E0,0E0,0E0,0E0,0E0,0E0,0E0],"parents":[2147483647,0,0,1,1,2,2,3,3,4,4,5,5,6,6,7,7,8,8,9,9,10,10,11,11,12,12,13,13,14,14],"right_children":[2,4,6,8,10,12,14,16,18,20,22,24,26,28,30,-1,-1,-1,-1,-1,-1,-1,-1,-1,-1,-1,-1,-1,-1,-1,-1],"split_conditions":[4.0366665E1,2.6857143E1,6.9E1,3E1,2.7142857E1,5.6066666E1,4E0,3.4666668E1,3.1833334E1,2.2666666E1,3.1857143E1,5.357143E1,7.6E1,7.163333E1,1.02E2,-2.719841E-1,4.4209346E-1,-1.5485549E-1,3.0709407E-1,-3.3705184E-1,4.1641885E-1,-1.6588983E-1,-5.9672303E-2,2.4603393E-2,2.0723884E-1,2.8546324E-1,1.4328277E-1,6.659535E-1,4.2649794E-1,3.3632383E-1,-1.1895541E-1],"split_indices":[9,8,7,5,8,9,0,9,9,9,8,8,6,9,7,0,0,0,0,0,0,0,0,0,0,0,0,0,0,0,0],"split_type":[0,0,0,0,0,0,0,0,0,0,0,0,0,0,0,0,0,0,0,0,0,0,0,0,0,0,0,0,0,0,0],"sum_hessian":[4.907E3,2.887E3,2.02E3,1.829E3,1.058E3,1.258E3,7.62E2,1.773E3,5.6E1,1.1E1,1.047E3,2.61E2,9.97E2,3.78E2,3.84E2,1.772E3,1E0,5.1E1,5E0,2E0,9E0,2.29E2,8.18E2,1.96E2,6.5E1,7.62E2,2.35E2,5.9E1,3.19E2,3.7E2,1.4E1],"tree_param":{"num_deleted":"0","num_feature":"12","num_nodes":"31","size_leaf_vector":"1"}},{"base_weights":[-3.110777E-2,-3.5883286E0,5.2918644E0,-5.039787E0,-1.2948536E0,3.3862386E0,7.241834E0,-5.0556345E0,5.756677E-1,-8.1067723E-1,-2.7849298E0,3.7792594E0,-4.1582847E0,8.615533E-1,7.6008306E0,-2.7402648E-1,-2.2124307E-1,-1.4888068E-1,-6.9156126E-3,-2.2269264E-1,-7.02559E-2,1.9724195E-1,-2.4238305E-1,-4.8466513E-1,3.5537064E-2,1.5595905E-1,-5.972648E-1,1.7317538E-1,4.0046716E-1],"categories":[],"categories_nodes":[],"categories_segments":[],"categories_sizes":[],"default_left":[0,0,0,0,0,0,0,0,0,0,0,0,0,0,0,0,0,0,0,0,0,0,0,0,0,0,0,0,0],"id":28,"left_children":[1,3,5,7,9,11,13,15,-1,17,19,21,23,25,27,-1,-1,-1,-1,-1,-1,-1,-1,-1,-1,-1,-1,-1,-1],"loss_changes":[9.1418164E4,9.627262E3,7.1620547E3,5.230586E2,8.079414E2,2.9215674E3,2.180879E3,4.5039844E2,0E0,1.2365574E3,6.2701196E2,1.3504316E3,1.3274465E3,1.5407406E3,1.5001523E3,0E0,0E0,0E0,0E0,0E0,0E0,0E0,0E0,0E0,0E0,0E0,0E0,0E0,0E0],"parents":[2147483647,0,0,1,1,2,2,3,3,4,4,5,5,6,6,7,7,9,9,10,10,11,11,12,12,13,13,14,14],"right_children":[2,4,6,8,10,12,14,16,-1,18,20,22,24,26,28,-1,-1,-1,-1,-1,-1,-1,-1,-1,-1,-1,-1,-1,-1],"split_conditions":[4.15E1,3.01E1,6.2533333E1,4.3E1,1.2111111E-1,1.425E-1,6.818182E-2,1.9666666E1,5.756677E-1,7.454546E-2,3.442857E1,9.3E1,3E0,4.3E1,6.0714287E1,-2.7402648E-1,-2.2124307E-1,-1.4888068E-1,-6.9156126E-3,-2.2269264E-1,-7.02559E-2,1.9724195E-1,-2.4238305E-1,-4.8466513E-1,3.5537064E-2,1.5595905E-1,-5.972648E-1,1.7317538E-1,4.0046716E-1],"split_indices":[9,9,9,7,10,10,10,9,0,10,8,5,1,4,8,0,0,0,0,0,0,0,0,0,0,0,0,0,0],"split_type":[0,0,0,0,0,0,0,0,0,0,0,0,0,0,0,0,0,0,0,0,0,0,0,0,0,0,0,0,0],"sum_hessian":[4.826E3,2.893E3,1.933E3,1.771E3,1.122E3,9.79E2,9.54E2,1.77E3,1E0,8.48E2,2.74E2,9.31E2,4.8E1,5.1E1,9.03E2,1.053E3,7.17E2,2E2,6.48E2,1.23E2,1.51E2,9.14E2,1.7E1,2.2E1,2.6E1,4.4E1,7E0,8.2E1,8.21E2],"tree_param":{"num_deleted":"0","num_feature":"12","num_nodes":"29","size_leaf_vector":"1"}},{"base_weights":[4.3455046E-2,-3.3981645E0,5.5852737E0,-4.789572E0,-1.3134451E0,7.54867E0,4.569365E0,-4.8341503E0,8.108037E-1,-6.544917E0,-1.1175432E0,2.4970415E0,8.094722E0,4.722511E0,-5.9622607E0,-2.594069E-1,-2.1661177E-1,-1.8917422E-1,2.6518708E-1,-4.17864E-1,-1.9078797E-1,-5.006795E-2,-2.7205363E-1,2.7335274E-1,-2.9305285E-1,5.844624E-1,3.507153E-1,2.2305923E-2,2.5025985E-1,-5.588218E-1,-8.140552E-2],"categories":[],"categories_nodes":[],"categories_segments":[],"categories_sizes":[],"default_left":[0,0,0,0,0,0,0,0,0,0,0,0,0,0,0,0,0,0,0,0,0,0,0,0,0,0,0,0,0,0,0],"id":29,"left_children":[1,3,5,7,9,11,13,15,17,19,21,23,25,27,29,-1,-1,-1,-1,-1,-1,-1,-1,-1,-1,-1,-1,-1,-1,-1,-1],"loss_changes":[9.2350555E4,8.658086E3,3.6655469E3,4.5105078E2,1.2194377E3,1.720375E3,2.0039238E3,2.932461E2,3.2969437E2,1.8079834E2,5.747379E2,1.5959335E3,2.1277695E3,1.4580898E3,3.8858575E2,0E0,0E0,0E0,0E0,0E0,0E0,0E0,0E0,0E0,0E0,0E0,0E0,0E0,0E0,0E0,0E0],"parents":[2147483647,0,0,1,1,2,2,3,3,4,4,5,5,6,6,7,7,8,8,9,9,10,10,11,11,12,12,13,13,14,14],"right_children":[2,4,6,8,10,12,14,16,18,20,22,24,26,28,30,-1,-1,-1,-1,-1,-1,-1,-1,-1,-1,-1,-1,-1,-1,-1,-1],"split_conditions":[5.0366665E1,3.01E1,4E0,2.7E1,2.6086956E-1,3.9130434E-1,8.125E-1,1.96E1,1.1E1,3.7142857E1,5.2E1,7.6E1,6.928571E1,3.4375E-1,5.742857E1,-2.594069E-1,-2.1661177E-1,-1.8917422E-1,2.6518708E-1,-4.17864E-1,-1.9078797E-1,-5.006795E-2,-2.7205363E-1,2.7335274E-1,-2.9305285E-1,5.844624E-1,3.507153E-1,2.2305923E-2,2.5025985E-1,-5.588218E-1,-8.140552E-2],"split_indices":[9,9,0,8,11,11,11,9,0,8,4,8,8,11,8,0,0,0,0,0,0,0,0,0,0,0,0,0,0,0,0],"split_type":[0,0,0,0,0,0,0,0,0,0,0,0,0,0,0,0,0,0,0,0,0,0,0,0,0,0,0,0,0,0,0],"sum_hessian":[4.84E3,2.986E3,1.854E3,1.79E3,1.196E3,6.3E2,1.224E3,1.776E3,1.4E1,4.2E1,1.154E3,6.2E1,5.68E2,1.207E3,1.7E1,1.036E3,7.4E2,7E0,7E0,2.4E1,1.8E1,1.125E3,2.9E1,4.6E1,1.6E1,1.29E2,4.39E2,7.5E1,1.132E3,7E0,1E1],"tree_param":{"num_deleted":"0","num_feature":"12","num_nodes":"31","size_leaf_vector":"1"}},{"base_weights":[3.9797716E-2,-3.3437772E0,4.938003E0,-4.584635E0,-1.3897387E0,3.812062E0,6.7868586E0,-4.890055E0,-3.8587444E0,-1.1916292E0,-6.540515E0,1.6280944E0,4.4385924E0,8.125085E0,5.3488307E0,-2.7556905E-1,-2.3627971E-1,-1.7628445E-1,-2.3767379E-1,-1.5488113E-1,-4.2710893E-2,-4.600915E-1,-3.7535217E-2,1.4402762E-2,2.6752794E-1,2.3542257E-1,-8.493507E-2,5.915065E-1,3.4438065E-1,5.640322E-2,3.0019465E-1],"categories":[],"categories_nodes":[],"categories_segments":[],"categories_sizes":[],"default_left":[0,0,0,0,0,0,0,0,0,0,0,0,0,0,0,0,0,0,0,0,0,0,0,0,0,0,0,0,0,0,0],"id":30,"left_children":[1,3,5,7,9,11,13,15,17,19,21,23,25,27,29,-1,-1,-1,-1,-1,-1,-1,-1,-1,-1,-1,-1,-1,-1,-1,-1],"loss_changes":[8.019883E4,6.933076E3,4.0896562E3,3.6910938E2,1.1279312E3,1.6771797E3,1.3940703E3,9.94375E1,1.3909277E2,6.874043E2,6.248413E2,1.3752153E3,1.5913262E3,1.6837012E3,9.9687305E2,0E0,0E0,0E0,0E0,0E0,0E0,0E0,0E0,0E0,0E0,0E0,0E0,0E0,0E0,0E0,0E0],"parents":[2147483647,0,0,1,1,2,2,3,3,4,4,5,5,6,6,7,7,8,8,9,9,10,10,11,11,12,12,13,13,14,14],"right_children":[2,4,6,8,10,12,14,16,18,20,22,24,26,28,30,-1,-1,-1,-1,-1,-1,-1,-1,-1,-1,-1,-1,-1,-1,-1,-1],"split_conditions":[4.0366665E1,2.41E1,6.9E1,2.1233334E1,8.5E-1,5.6433334E1,4E0,2E0,2.3066668E1,3.7931034E-1,3.7714287E1,3.7E1,7.619048E-1,6.957143E1,1E0,-2.7556905E-1,-2.3627971E-1,-1.7628445E-1,-2.3767379E-1,-1.5488113E-1,-4.2710893E-2,-4.600915E-1,-3.7535217E-2,1.4402762E-2,2.6752794E-1,2.3542257E-1,-8.493507E-2,5.915065E-1,3.4438065E-1,5.640322E-2,3.0019465E-1],"split_indices":[9,9,7,9,11,9,0,0,9,11,8,4,11,8,1,0,0,0,0,0,0,0,0,0,0,0,0,0,0,0,0],"split_type":[0,0,0,0,0,0,0,0,0,0,0,0,0,0,0,0,0,0,0,0,0,0,0,0,0,0,0,0,0,0,0],"sum_hessian":[4.837E3,2.861E3,1.976E3,1.749E3,1.112E3,1.23E3,7.46E2,1.227E3,5.22E2,1.072E3,4E1,2.75E2,9.55E2,3.84E2,3.62E2,2.5E2,9.77E2,3.84E2,1.38E2,1.6E2,9.12E2,2.7E1,1.3E1,2.03E2,7.2E1,9.15E2,4E1,9.4E1,2.9E2,4.9E1,3.13E2],"tree_param":{"num_deleted":"0","num_feature":"12","num_nodes":"31","size_leaf_vector":"1"}},{"base_weights":[1.53782E-2,-3.322123E0,4.5017953E0,-4.4221153E0,-1.4185992E0,3.4764903E0,6.8619714E0,-4.731245E0,-3.721022E0,-3.6276147E0,-9.2073363E-1,-1.0091934E1,3.587223E0,3.6809394E0,7.9416385E0,-2.6126578E-1,-2.301132E-1,-2.0470396E-1,-1.4173934E-1,-1.0913757E-1,-3.454986E-1,-2.7091667E-1,-3.411332E-2,-1.7650986E-2,-5.4725987E-1,8.988011E-2,2.1277729E-1,3.4638664E-1,3.4821063E-2,4.7449484E-1,2.1043919E-1],"categories":[],"categories_nodes":[],"categories_segments":[],"categories_sizes":[],"default_left":[0,0,0,0,0,0,0,0,0,0,0,0,0,0,0,0,0,0,0,0,0,0,0,0,0,0,0,0,0,0,0],"id":31,"left_children":[1,3,5,7,9,11,13,15,17,19,21,23,25,27,29,-1,-1,-1,-1,-1,-1,-1,-1,-1,-1,-1,-1,-1,-1,-1,-1],"loss_changes":[7.2905586E4,5.839789E3,5.0022773E3,3.6578516E2,1.1228479E3,2.2147852E3,2.1276074E3,5.3953125E1,1.6891064E2,8.765178E2,8.9401086E2,9.585437E1,1.713459E3,1.5552834E3,2.6648281E3,0E0,0E0,0E0,0E0,0E0,0E0,0E0,0E0,0E0,0E0,0E0,0E0,0E0,0E0,0E0,0E0],"parents":[2147483647,0,0,1,1,2,2,3,3,4,4,5,5,6,6,7,7,8,8,9,9,10,10,11,11,12,12,13,13,14,14],"right_children":[2,4,6,8,10,12,14,16,18,20,22,24,26,28,30,-1,-1,-1,-1,-1,-1,-1,-1,-1,-1,-1,-1,-1,-1,-1,-1],"split_conditions":[3.89E1,2.41E1,6.93E1,2.1233334E1,7.454546E-2,2.0833333E-1,8.857143E-2,2E0,1.06249996E-1,6.451613E-1,2.9032257E-1,3.91E1,5.67E1,7.313333E1,1.1818182E-1,-2.6126578E-1,-2.301132E-1,-2.0470396E-1,-1.4173934E-1,-1.0913757E-1,-3.454986E-1,-2.7091667E-1,-3.411332E-2,-1.7650986E-2,-5.4725987E-1,8.988011E-2,2.1277729E-1,3.4638664E-1,3.4821063E-2,4.7449484E-1,2.1043919E-1],"split_indices":[9,9,9,9,10,11,10,0,10,11,11,9,9,9,10,0,0,0,0,0,0,0,0,0,0,0,0,0,0,0,0],"split_type":[0,0,0,0,0,0,0,0,0,0,0,0,0,0,0,0,0,0,0,0,0,0,0,0,0,0,0,0,0,0,0],"sum_hessian":[4.867E3,2.791E3,2.076E3,1.768E3,1.023E3,1.449E3,6.27E2,1.223E3,5.45E2,1.87E2,8.36E2,1.1E1,1.438E3,1.6E2,4.67E2,2.45E2,9.78E2,3.81E2,1.64E2,1.31E2,5.6E1,4.1E1,7.95E2,1E0,1E1,3.92E2,1.046E3,7.6E1,8.4E1,3.29E2,1.38E2],"tree_param":{"num_deleted":"0","num_feature":"12","num_nodes":"31","size_leaf_vector":"1"}},{"base_weights":[1.4863288E-1,-3.0837235E0,4.718442E0,-4.1640553E0,-1.2298052E0,3.4403234E0,6.1866407E0,-4.1356597E0,-1.0793864E1,-1.0584751E0,-6.441471E0,2.4766603E0,5.412758E0,1.6633663E0,6.535883E0,-2.1029182E-1,7.0556276E-2,-1.5114097E-1,-5.792618E-1,-1.8174998E-1,-3.8425736E-2,-4.7440788E-1,-5.1220205E-2,1.5687183E-1,9.569565E-4,3.238189E-1,2.2384914E-2,-1.5282731E-1,4.0581164E-1,5.5722E-1,3.0221394E-1],"categories":[],"categories_nodes":[],"categories_segments":[],"categories_sizes":[],"default_left":[0,0,0,0,0,0,0,0,0,0,0,0,0,0,0,0,0,0,0,0,0,0,0,0,0,0,0,0,0,0,0],"id":32,"left_children":[1,3,5,7,9,11,13,15,17,19,21,23,25,27,29,-1,-1,-1,-1,-1,-1,-1,-1,-1,-1,-1,-1,-1,-1,-1,-1],"loss_changes":[7.134493E4,5.6609355E3,3.7336562E3,2.9177734E2,9.2449255E2,2.0242119E3,1.4582656E3,6.991953E2,8.028381E0,7.525145E2,5.3491565E2,1.172375E3,1.850708E3,2.0958813E3,1.8878242E3,0E0,0E0,0E0,0E0,0E0,0E0,0E0,0E0,0E0,0E0,0E0,0E0,0E0,0E0,0E0,0E0],"parents":[2147483647,0,0,1,1,2,2,3,3,4,4,5,5,6,6,7,7,8,8,9,9,10,10,11,11,12,12,13,13,14,14],"right_children":[2,4,6,8,10,12,14,16,18,20,22,24,26,28,30,-1,-1,-1,-1,-1,-1,-1,-1,-1,-1,-1,-1,-1,-1,-1,-1],"split_conditions":[4.0366665E1,2.7E1,6.31E1,2.6714285E1,8.5E-1,1E1,6.042857E1,3.1166666E1,1.1E1,3.4375E-1,3.842857E1,6.551724E-1,7.5E1,5.9E1,6.428571E1,-2.1029182E-1,7.0556276E-2,-1.5114097E-1,-5.792618E-1,-1.8174998E-1,-3.8425736E-2,-4.7440788E-1,-5.1220205E-2,1.5687183E-1,9.569565E-4,3.238189E-1,2.2384914E-2,-1.5282731E-1,4.0581164E-1,5.5722E-1,3.0221394E-1],"split_indices":[9,8,9,8,11,0,8,9,0,11,8,11,6,6,8,0,0,0,0,0,0,0,0,0,0,0,0,0,0,0,0],"split_type":[0,0,0,0,0,0,0,0,0,0,0,0,0,0,0,0,0,0,0,0,0,0,0,0,0,0,0,0,0,0,0],"sum_hessian":[4.828E3,2.828E3,2E3,1.786E3,1.042E3,1.071E3,9.29E2,1.78E3,6E0,1.01E3,3.2E1,7.21E2,3.5E2,6.7E1,8.62E2,1.758E3,2.2E1,1E0,5E0,1.01E2,9.09E2,2E1,1.2E1,5.68E2,1.53E2,2.88E2,6.2E1,3.9E1,2.8E1,8.1E1,7.81E2],"tree_param":{"num_deleted":"0","num_feature":"12","num_nodes":"31","size_leaf_vector":"1"}},{"base_weights":[-5.307427E-3,-2.8015063E0,4.230664E0,-3.7457123E0,-6.279665E-1,-5.302623E-1,4.513446E0,-3.8014617E0,5.303677E0,-1.5637786E0,6.020606E-1,-2.441083E0,6.8037586E0,3.5970469E0,5.670909E0,-1.983475E-1,-9.277376E-2,5.0648844E-1,-2.2220115E-1,-2.493087E-3,-1.526923E-1,-1.17665924E-1,7.463022E-2,2.1952823E-1,-2.0693342E-1,-9.207601E-2,6.7978144E-1,2.8875542E-1,1.5187602E-1,1.1576165E-1,3.2563663E-1],"categories":[],"categories_nodes":[],"categories_segments":[],"categories_sizes":[],"default_left":[0,0,0,0,0,0,0,0,0,0,0,0,0,0,0,0,0,0,0,0,0,0,0,0,0,0,0,0,0,0,0],"id":33,"left_children":[1,3,5,7,9,11,13,15,17,19,21,23,25,27,29,-1,-1,-1,-1,-1,-1,-1,-1,-1,-1,-1,-1,-1,-1,-1,-1],"loss_changes":[5.7967566E4,6.0477363E3,2.6223008E3,1.0569102E3,1.0300018E3,1.5581484E3,1.9281055E3,6.505625E2,6.5657983E2,1.1458134E3,1.0220558E3,1.038734E3,1.3755417E3,1.2352646E3,2.27308E3,0E0,0E0,0E0,0E0,0E0,0E0,0E0,0E0,0E0,0E0,0E0,0E0,0E0,0E0,0E0,0E0],"parents":[2147483647,0,0,1,1,2,2,3,3,4,4,5,5,6,6,7,7,8,8,9,9,10,10,11,11,12,12,13,13,14,14],"right_children":[2,4,6,8,10,12,14,16,18,20,22,24,26,28,30,-1,-1,-1,-1,-1,-1,-1,-1,-1,-1,-1,-1,-1,-1,-1,-1],"split_conditions":[4.442857E1,3.1857143E1,3.4375E-1,4.7E1,4E0,7.071429E1,6.571429E1,3E1,1.0148148E-1,5.405405E-1,8.1818186E-2,4E0,7E0,4.6E1,8.310345E-2,-1.983475E-1,-9.277376E-2,5.0648844E-1,-2.2220115E-1,-2.493087E-3,-1.526923E-1,-1.17665924E-1,7.463022E-2,2.1952823E-1,-2.0693342E-1,-9.207601E-2,6.7978144E-1,2.8875542E-1,1.5187602E-1,1.1576165E-1,3.2563663E-1],"split_indices":[8,8,11,6,1,8,8,5,10,11,10,3,3,6,10,0,0,0,0,0,0,0,0,0,0,0,0,0,0,0,0],"split_type":[0,0,0,0,0,0,0,0,0,0,0,0,0,0,0,0,0,0,0,0,0,0,0,0,0,0,0,0,0,0,0],"sum_hessian":[4.892E3,2.947E3,1.945E3,2.054E3,8.93E2,1.09E2,1.836E3,2.042E3,1.2E1,5.07E2,3.86E2,8.7E1,2.2E1,1.027E3,8.09E2,1.881E3,1.61E2,8E0,4E0,2.52E2,2.55E2,8.9E1,2.97E2,1.7E1,7E1,1E1,1.2E1,2.08E2,8.19E2,1.63E2,6.46E2],"tree_param":{"num_deleted":"0","num_feature":"12","num_nodes":"31","size_leaf_vector":"1"}},{"base_weights":[7.937428E-2,-2.6086137E0,4.1202803E0,-3.7246501E0,-7.5664365E-1,-1.0122933E0,4.430796E0,-4.0153017E0,-3.0419805E0,-5.959451E-1,-5.1255474E0,-1.1179327E1,-2.2802128E-1,4.683765E0,-1.4957225E0,-1.9883601E-1,-2.895746E-1,-1.6405667E-1,-8.380949E-2,-2.1854281E-2,-2.7001354E-1,-2.9630244E-1,3.227908E-1,4.9321777E-1,-7.797381E-1,2.279109E-1,-6.692244E-2,1.5093409E-1,2.7191278E-1,-3.8587376E-1,6.74948E-2],"categories":[],"categories_nodes":[],"categories_segments":[],"categories_sizes":[],"default_left":[0,0,0,0,0,0,0,0,0,0,0,0,0,0,0,0,0,0,0,0,0,0,0,0,0,0,0,0,0,0,0],"id":34,"left_children":[1,3,5,7,9,11,13,15,17,19,21,23,25,27,29,-1,-1,-1,-1,-1,-1,-1,-1,-1,-1,-1,-1,-1,-1,-1,-1],"loss_changes":[5.2995125E4,6.0530996E3,3.1106953E3,3.504961E2,7.7133563E2,8.905076E2,2.762586E3,6.461719E1,1.7414844E2,8.104614E2,3.998224E2,8.9716815E2,5.6415186E2,2.198418E3,1.3559777E3,0E0,0E0,0E0,0E0,0E0,0E0,0E0,0E0,0E0,0E0,0E0,0E0,0E0,0E0,0E0,0E0],"parents":[2147483647,0,0,1,1,2,2,3,3,4,4,5,5,6,6,7,7,8,8,9,9,10,10,11,11,12,12,13,13,14,14],"right_children":[2,4,6,8,10,12,14,16,18,20,22,24,26,28,30,-1,-1,-1,-1,-1,-1,-1,-1,-1,-1,-1,-1,-1,-1,-1,-1],"split_conditions":[4.09E1,3.01E1,3.4375E-1,2.1233334E1,1.55E-1,6.9375E-2,1.425E-1,1.3714285E-1,1.11999996E-1,8.5E-1,6.1E1,4.4285715E-2,1E1,8.9E-2,5.8666668E1,-1.9883601E-1,-2.895746E-1,-1.6405667E-1,-8.380949E-2,-2.1854281E-2,-2.7001354E-1,-2.9630244E-1,3.227908E-1,4.9321777E-1,-7.797381E-1,2.279109E-1,-6.692244E-2,1.5093409E-1,2.7191278E-1,-3.8587376E-1,6.74948E-2],"split_indices":[9,9,11,9,10,10,10,10,10,11,5,10,4,10,9,0,0,0,0,0,0,0,0,0,0,0,0,0,0,0,0],"split_type":[0,0,0,0,0,0,0,0,0,0,0,0,0,0,0,0,0,0,0,0,0,0,0,0,0,0,0,0,0,0,0],"sum_hessian":[4.877E3,2.929E3,1.948E3,1.827E3,1.102E3,1.11E2,1.837E3,1.278E3,5.49E2,1.064E3,3.8E1,7E0,1.04E2,1.762E3,7.5E1,1.254E3,2.4E1,4.66E2,8.3E1,1.031E3,3.3E1,3.6E1,2E0,1E0,6E0,1.9E1,8.5E1,5.51E2,1.211E3,2.3E1,5.2E1],"tree_param":{"num_deleted":"0","num_feature":"12","num_nodes":"31","size_leaf_vector":"1"}},{"base_weights":[7.319804E-2,-2.331842E0,4.192628E0,-3.4878337E0,-8.500951E-1,5.7811875E0,3.3163927E0,-3.5029678E0,5.639483E-1,-7.466378E-1,-8.031028E0,4.2210674E0,7.332914E0,2.2370758E0,4.27213E0,-1.8936247E-1,-1.4195518E-1,-1.288029E-1,-1.8237995E-2,-1.9494514E-1,-7.2788423E-1,3.322949E-1,1.2698786E-1,1.2244649E0,3.4897402E-1,-8.735927E-2,1.3083045E-1,2.3997997E-1,-4.505718E-3],"categories":[],"categories_nodes":[],"categories_segments":[],"categories_sizes":[],"default_left":[0,0,0,0,0,0,0,0,0,0,0,0,0,0,0,0,0,0,0,0,0,0,0,0,0,0,0,0,0],"id":35,"left_children":[1,3,5,7,9,11,13,15,-1,17,19,21,23,25,27,-1,-1,-1,-1,-1,-1,-1,-1,-1,-1,-1,-1,-1,-1],"loss_changes":[4.8110176E4,5.248746E3,2.4724219E3,4.243457E2,9.932309E2,1.5063047E3,1.1829072E3,3.1404102E2,0E0,9.2612274E2,4.5565125E2,1.2836494E3,1.751252E3,8.2869824E2,1.4086143E3,0E0,0E0,0E0,0E0,0E0,0E0,0E0,0E0,0E0,0E0,0E0,0E0,0E0,0E0],"parents":[2147483647,0,0,1,1,2,2,3,3,4,4,5,5,6,6,7,7,9,9,10,10,11,11,12,12,13,13,14,14],"right_children":[2,4,6,8,10,12,14,16,-1,18,20,22,24,26,28,-1,-1,-1,-1,-1,-1,-1,-1,-1,-1,-1,-1,-1,-1],"split_conditions":[5.53E1,3.01E1,4E0,4.3E1,1.6250001E-1,7.3E1,6E1,2.1566668E1,5.639483E-1,7.454546E-2,3.6533333E1,7.29E1,4E1,5.67E1,1.3259259E-1,-1.8936247E-1,-1.4195518E-1,-1.288029E-1,-1.8237995E-2,-1.9494514E-1,-7.2788423E-1,3.322949E-1,1.2698786E-1,1.2244649E0,3.4897402E-1,-8.735927E-2,1.3083045E-1,2.3997997E-1,-4.505718E-3],"split_indices":[9,9,0,7,10,7,5,9,0,10,9,9,5,9,10,0,0,0,0,0,0,0,0,0,0,0,0,0,0],"split_type":[0,0,0,0,0,0,0,0,0,0,0,0,0,0,0,0,0,0,0,0,0,0,0,0,0,0,0,0,0],"sum_hessian":[4.854E3,3.065E3,1.789E3,1.721E3,1.344E3,6.34E2,1.155E3,1.72E3,1E0,1.326E3,1.8E1,3.18E2,3.16E2,5.44E2,6.11E2,1.201E3,5.19E2,2.28E2,1.098E3,1.2E1,6E0,1.29E2,1.89E2,5E0,3.11E2,4.7E1,4.97E2,5.45E2,6.6E1],"tree_param":{"num_deleted":"0","num_feature":"12","num_nodes":"29","size_leaf_vector":"1"}},{"base_weights":[2.3310296E-2,-2.3446686E0,3.8709435E0,-3.3997927E0,-8.6376816E-1,4.2092605E0,-3.2380122E-1,-3.646691E0,-2.8080087E0,-2.5135221E0,-2.4098863E-1,3.3306396E0,5.499524E0,-2.5804152E0,4.2945795E0,-2.1501914E-1,-1.7456006E-1,-1.5543602E-1,-7.9350516E-2,-2.1388792E-1,-4.0759865E-2,2.6442453E-1,-3.5761084E-2,2.1296914E-1,9.508472E-2,2.9455248E-1,-1.1254531E-1,-7.46061E-2,-5.3282183E-1,-6.158621E-1,2.8699955E-1],"categories":[],"categories_nodes":[],"categories_segments":[],"categories_sizes":[],"default_left":[0,0,0,0,0,0,0,0,0,0,0,0,0,0,0,0,0,0,0,0,0,0,0,0,0,0,0,0,0,0,0],"id":36,"left_children":[1,3,5,7,9,11,13,15,17,19,21,23,25,27,29,-1,-1,-1,-1,-1,-1,-1,-1,-1,-1,-1,-1,-1,-1,-1,-1],"loss_changes":[4.4243535E4,4.694041E3,2.6267969E3,2.461836E2,1.2857402E3,1.9224941E3,1.4597263E3,1.1051367E2,1.8636133E2,1.0242253E3,2.3900408E3,1.3468936E3,2.113127E3,8.1027277E2,1.175203E3,0E0,0E0,0E0,0E0,0E0,0E0,0E0,0E0,0E0,0E0,0E0,0E0,0E0,0E0,0E0,0E0],"parents":[2147483647,0,0,1,1,2,2,3,3,4,4,5,5,6,6,7,7,8,8,9,9,10,10,11,11,12,12,13,13,14,14],"right_children":[2,4,6,8,10,12,14,16,18,20,22,24,26,28,30,-1,-1,-1,-1,-1,-1,-1,-1,-1,-1,-1,-1,-1,-1,-1,-1],"split_conditions":[4.8714287E1,2.5857143E1,1.3625E-1,2.1233334E1,4.4827586E-1,6.9E1,7E1,2E0,1.1030303E-1,3.5E1,4.7826087E-1,5.833333E-1,7.5E-1,7.19E1,2E0,-2.1501914E-1,-1.7456006E-1,-1.5543602E-1,-7.9350516E-2,-2.1388792E-1,-4.0759865E-2,2.6442453E-1,-3.5761084E-2,2.1296914E-1,9.508472E-2,2.9455248E-1,-1.1254531E-1,-7.46061E-2,-5.3282183E-1,-6.158621E-1,2.8699955E-1],"split_indices":[8,8,10,9,11,7,6,0,10,8,11,11,11,9,3,0,0,0,0,0,0,0,0,0,0,0,0,0,0,0,0],"split_type":[0,0,0,0,0,0,0,0,0,0,0,0,0,0,0,0,0,0,0,0,0,0,0,0,0,0,0,0,0,0,0],"sum_hessian":[4.854E3,3.005E3,1.849E3,1.754E3,1.251E3,1.711E3,1.38E2,1.234E3,5.2E2,3.42E2,9.09E2,1.02E3,6.91E2,9.3E1,4.5E1,2.32E2,1.002E3,4.16E2,1.04E2,1.67E2,1.75E2,7.1E1,8.38E2,6.17E2,4.03E2,6.58E2,3.3E1,8.3E1,1E1,3E0,4.2E1],"tree_param":{"num_deleted":"0","num_feature":"12","num_nodes":"31","size_leaf_vector":"1"}},{"base_weights":[8.5335255E-2,-2.239611E0,3.710776E0,-3.101224E0,-4.9371597E-1,5.4078584E0,2.762557E0,-3.2114766E0,-5.5727077E-1,-5.967731E-1,9.490361E0,-4.5444402E-1,5.949291E0,2.8964314E0,-4.9679627E0,-1.5866199E-1,-3.6154434E-1,1.5936157E-1,-8.593602E-2,-2.2285437E-2,-2.725964E-1,7.5648576E-1,4.1253205E-2,-5.6685275E-1,1.1668821E-1,2.139529E-1,4.008484E-1,9.2409246E-2,1.7953648E-1,-5.9012437E-1,-1.04725935E-1],"categories":[],"categories_nodes":[],"categories_segments":[],"categories_sizes":[],"default_left":[0,0,0,0,0,0,0,0,0,0,0,0,0,0,0,0,0,0,0,0,0,0,0,0,0,0,0,0,0,0,0],"id":37,"left_children":[1,3,5,7,9,11,13,15,17,19,21,23,25,27,29,-1,-1,-1,-1,-1,-1,-1,-1,-1,-1,-1,-1,-1,-1,-1,-1],"loss_changes":[4.0686445E4,4.4225713E3,3.0200215E3,5.5047266E2,1.0068126E3,2.1451836E3,1.2687119E3,2.670664E2,3.664491E2,7.0460706E2,4.7618384E2,1.7863511E3,2.099961E3,8.608955E2,3.876906E2,0E0,0E0,0E0,0E0,0E0,0E0,0E0,0E0,0E0,0E0,0E0,0E0,0E0,0E0,0E0,0E0],"parents":[2147483647,0,0,1,1,2,2,3,3,4,4,5,5,6,6,7,7,8,8,9,9,10,10,11,11,12,12,13,13,14,14],"right_children":[2,4,6,8,10,12,14,16,18,20,22,24,26,28,30,-1,-1,-1,-1,-1,-1,-1,-1,-1,-1,-1,-1,-1,-1,-1,-1],"split_conditions":[4.442857E1,3.0571428E1,4E0,3.2E1,6.4E1,3.8709676E-1,8.125E-1,5.1E1,2E0,8.5E-1,5.4285717E-1,6.671429E1,7.3E1,5.151515E-1,5.357143E1,-1.5866199E-1,-3.6154434E-1,1.5936157E-1,-8.593602E-2,-2.2285437E-2,-2.725964E-1,7.5648576E-1,4.1253205E-2,-5.6685275E-1,1.1668821E-1,2.139529E-1,4.008484E-1,9.2409246E-2,1.7953648E-1,-5.9012437E-1,-1.04725935E-1],"split_indices":[8,8,0,5,5,11,11,7,1,11,11,8,7,11,8,0,0,0,0,0,0,0,0,0,0,0,0,0,0,0,0],"split_type":[0,0,0,0,0,0,0,0,0,0,0,0,0,0,0,0,0,0,0,0,0,0,0,0,0,0,0,0,0,0,0],"sum_hessian":[4.825E3,2.94E3,1.885E3,1.968E3,9.72E2,6.74E2,1.211E3,1.886E3,8.2E1,9.63E2,9E0,5.7E1,6.17E2,1.191E3,2E1,1.87E3,1.6E1,1.9E1,6.3E1,9.35E2,2.8E1,5E0,4E0,1.1E1,4.6E1,3.43E2,2.74E2,4.76E2,7.15E2,5E0,1.5E1],"tree_param":{"num_deleted":"0","num_feature":"12","num_nodes":"31","size_leaf_vector":"1"}},{"base_weights":[-5.0297942E-2,-2.1635053E0,3.5143158E0,-3.0615194E0,-8.6409545E-1,2.507967E0,5.1626067E0,-3.0753987E0,5.52892E-1,-6.4272704E0,-7.366479E-1,2.642216E0,-7.665255E0,-1.6329756E0,5.5507503E0,-1.662002E-1,-1.3259856E-1,1.7892525E-2,-4.1470122E-1,-2.657522E-2,-1.7813537E-1,1.20203815E-1,3.8404006E-1,-6.0402673E-1,-1.14590935E-1,8.4236175E-1,-2.1513124E-1,3.334685E-1,2.0479552E-1],"categories":[],"categories_nodes":[],"categories_segments":[],"categories_sizes":[],"default_left":[0,0,0,0,0,0,0,0,0,0,0,0,0,0,0,0,0,0,0,0,0,0,0,0,0,0,0,0,0],"id":38,"left_children":[1,3,5,7,9,11,13,15,-1,17,19,21,23,25,27,-1,-1,-1,-1,-1,-1,-1,-1,-1,-1,-1,-1,-1,-1],"loss_changes":[3.683531E4,3.5797021E3,3.0059863E3,3.8968945E2,8.857854E2,1.5662764E3,1.8264141E3,1.8213672E2,0E0,3.5762024E2,7.1061633E2,1.3230093E3,3.2819202E2,1.947243E3,1.0337559E3,0E0,0E0,0E0,0E0,0E0,0E0,0E0,0E0,0E0,0E0,0E0,0E0,0E0,0E0],"parents":[2147483647,0,0,1,1,2,2,3,3,4,4,5,5,6,6,7,7,9,9,10,10,11,11,12,12,13,13,14,14],"right_children":[2,4,6,8,10,12,14,16,-1,18,20,22,24,26,28,-1,-1,-1,-1,-1,-1,-1,-1,-1,-1,-1,-1,-1,-1],"split_conditions":[5.2833332E1,3.01E1,6.663333E1,4.3E1,2.2727273E-1,8.125E-1,3.478261E-1,1.9933332E1,5.52892E-1,2.7E1,5.7E1,8.7E1,5.5E1,5.5E1,5.7894737E-1,-1.662002E-1,-1.3259856E-1,1.7892525E-2,-4.1470122E-1,-2.657522E-2,-1.7813537E-1,1.20203815E-1,3.8404006E-1,-6.0402673E-1,-1.14590935E-1,8.4236175E-1,-2.1513124E-1,3.334685E-1,2.0479552E-1],"split_indices":[9,9,9,7,11,11,11,9,0,5,5,7,5,7,11,0,0,0,0,0,0,0,0,0,0,0,0,0,0],"split_type":[0,0,0,0,0,0,0,0,0,0,0,0,0,0,0,0,0,0,0,0,0,0,0,0,0,0,0,0,0],"sum_hessian":[4.888E3,3.069E3,1.819E3,1.814E3,1.255E3,1.131E3,6.88E2,1.813E3,1E0,2.7E1,1.228E3,1.117E3,1.4E1,3.7E1,6.51E2,1.138E3,6.75E2,6E0,2.1E1,1.146E3,8.2E1,1.068E3,4.9E1,7E0,7E0,4E0,3.3E1,3.66E2,2.85E2],"tree_param":{"num_deleted":"0","num_feature":"12","num_nodes":"29","size_leaf_vector":"1"}},{"base_weights":[-6.5289736E-2,-2.1957593E0,2.937871E0,-2.9533105E0,-7.2299653E-1,2.047816E0,4.447513E0,-3.223291E0,-2.3565395E0,-5.4834884E-1,-6.7894826E0,2.39867E0,-9.749012E-1,4.6836767E0,-1.165813E0,-1.5786077E-1,-2.1051875E-1,-1.3920519E-1,-7.740437E-2,-1.0503607E-1,-9.446276E-3,-1.3083999E-1,-4.5450363E-1,1.3164645E-1,-1.9724165E-1,1.175242E-4,-4.9979335E-1,2.0933802E-1,3.9890745E-1,-4.653407E-1,5.8015E-2],"categories":[],"categories_nodes":[],"categories_segments":[],"categories_sizes":[],"default_left":[0,0,0,0,0,0,0,0,0,0,0,0,0,0,0,0,0,0,0,0,0,0,0,0,0,0,0,0,0,0,0],"id":39,"left_children":[1,3,5,7,9,11,13,15,17,19,21,23,25,27,29,-1,-1,-1,-1,-1,-1,-1,-1,-1,-1,-1,-1,-1,-1,-1,-1],"loss_changes":[3.1127018E4,3.173127E3,2.70375E3,2.9514062E2,1.02187085E3,1.3513359E3,9.9705664E2,7.09082E1,1.9928687E2,5.2520044E2,2.354032E2,1.7044526E3,1.1725187E3,1.1420186E3,5.978423E2,0E0,0E0,0E0,0E0,0E0,0E0,0E0,0E0,0E0,0E0,0E0,0E0,0E0,0E0,0E0,0E0],"parents":[2147483647,0,0,1,1,2,2,3,3,4,4,5,5,6,6,7,7,8,8,9,9,10,10,11,11,12,12,13,13,14,14],"right_children":[2,4,6,8,10,12,14,16,18,20,22,24,26,28,30,-1,-1,-1,-1,-1,-1,-1,-1,-1,-1,-1,-1,-1,-1,-1,-1],"split_conditions":[4.0366665E1,2.9714285E1,6.9E1,2.1933332E1,1.5857142E-1,8.4E1,1E2,1.18E-1,1.05925925E-1,7.454546E-2,3E1,1.48E-1,4.8E1,7.573333E1,7.04E1,-1.5786077E-1,-2.1051875E-1,-1.3920519E-1,-7.740437E-2,-1.0503607E-1,-9.446276E-3,-1.3083999E-1,-4.5450363E-1,1.3164645E-1,-1.9724165E-1,1.175242E-4,-4.9979335E-1,2.0933802E-1,3.9890745E-1,-4.653407E-1,5.8015E-2],"split_indices":[9,8,7,9,10,6,6,10,10,10,7,10,4,9,9,0,0,0,0,0,0,0,0,0,0,0,0,0,0,0,0],"split_type":[0,0,0,0,0,0,0,0,0,0,0,0,0,0,0,0,0,0,0,0,0,0,0,0,0,0,0,0,0,0,0],"sum_hessian":[4.863E3,2.845E3,2.018E3,1.878E3,9.67E2,1.271E3,7.47E2,1.29E3,5.88E2,9.41E2,2.6E1,1.139E3,1.32E2,7.17E2,3E1,1.213E3,7.7E1,3.83E2,2.05E2,1.76E2,7.65E2,1E1,1.6E1,1.099E3,4E1,1.2E2,1.2E1,6.25E2,9.2E1,6E0,2.4E1],"tree_param":{"num_deleted":"0","num_feature":"12","num_nodes":"31","size_leaf_vector":"1"}},{"base_weights":[4.189592E-2,-1.9385283E0,3.2371976E0,-2.7378168E0,-8.0016637E-1,4.2848912E-1,3.728541E0,-2.7515204E0,5.3930587E-1,-3.0440443E0,-2.7661717E-1,1.4102669E-1,1.6210718E1,4.081362E0,-2.3550227E-2,-1.618225E-1,-1.24473825E-1,2.0730112E-1,-1.6409664E-1,6.722973E-2,-5.785643E-2,6.188818E-1,-1.117058E-2,4.324958E-1,1.1613482E0,2.1816973E-1,-5.8687158E-2,-6.754768E-1,2.9250858E-2],"categories":[],"categories_nodes":[],"categories_segments":[],"categories_sizes":[],"default_left":[0,0,0,0,0,0,0,0,0,0,0,0,0,0,0,0,0,0,0,0,0,0,0,0,0,0,0,0,0],"id":40,"left_children":[1,3,5,7,9,11,13,15,-1,17,19,21,23,25,27,-1,-1,-1,-1,-1,-1,-1,-1,-1,-1,-1,-1,-1,-1],"loss_changes":[3.0975768E4,2.7474668E3,2.5832168E3,3.5863086E2,1.4652839E3,1.2680172E3,2.1102578E3,2.1737012E2,0E0,4.1726978E2,1.4476086E3,1.2335841E3,6.4331055E1,2.1645625E3,1.1404873E3,0E0,0E0,0E0,0E0,0E0,0E0,0E0,0E0,0E0,0E0,0E0,0E0,0E0,0E0],"parents":[2147483647,0,0,1,1,2,2,3,3,4,4,5,5,6,6,7,7,9,9,10,10,11,11,12,12,13,13,14,14],"right_children":[2,4,6,8,10,12,14,16,-1,18,20,22,24,26,28,-1,-1,-1,-1,-1,-1,-1,-1,-1,-1,-1,-1,-1,-1],"split_conditions":[4.8714287E1,3.01E1,7.705882E-2,4.3E1,4.054054E-1,1.01E2,1.3625E-1,1.8466667E1,5.3930587E-1,2.6714285E1,5.4285717E-1,5.0285713E1,1E0,7.5E-1,4E0,-1.618225E-1,-1.24473825E-1,2.0730112E-1,-1.6409664E-1,6.722973E-2,-5.785643E-2,6.188818E-1,-1.117058E-2,4.324958E-1,1.1613482E0,2.1816973E-1,-5.8687158E-2,-6.754768E-1,2.9250858E-2],"split_indices":[8,9,10,7,11,7,10,9,0,8,11,8,2,11,4,0,0,0,0,0,0,0,0,0,0,0,0,0,0],"split_type":[0,0,0,0,0,0,0,0,0,0,0,0,0,0,0,0,0,0,0,0,0,0,0,0,0,0,0,0,0],"sum_hessian":[4.893E3,3.021E3,1.872E3,1.774E3,1.247E3,2.79E2,1.593E3,1.773E3,1E0,2.35E2,1.012E3,2.75E2,4E0,1.456E3,1.37E2,6.18E2,1.155E3,7E0,2.28E2,3.56E2,6.56E2,7E0,2.68E2,3E0,1E0,1.382E3,7.4E1,5E0,1.32E2],"tree_param":{"num_deleted":"0","num_feature":"12","num_nodes":"29","size_leaf_vector":"1"}},{"base_weights":[-5.7346243E-2,-1.9129449E0,2.9526327E0,-2.48938E0,-7.100709E-1,1.8003771E0,3.9289212E0,-2.5378902E0,7.539275E0,-7.700574E-1,9.461118E-1,1.0696809E0,3.4700356E0,4.0870805E0,-5.447511E0,-1.3357362E-1,-5.2629292E-2,7.855794E-1,1.7661242E-1,6.2790974E-3,-9.716087E-2,-2.3018454E-1,6.380495E-2,2.3967564E-1,-2.6671031E-2,2.2969416E-1,7.8254074E-2,4.0547293E-2,-4.467469E-1],"categories":[],"categories_nodes":[],"categories_segments":[],"categories_sizes":[],"default_left":[0,0,0,0,0,0,0,0,0,0,0,0,0,0,0,0,0,0,0,0,0,0,0,0,0,0,0,0,0],"id":41,"left_children":[1,3,5,7,9,11,13,15,17,19,-1,21,23,25,27,-1,-1,-1,-1,-1,-1,-1,-1,-1,-1,-1,-1,-1,-1],"loss_changes":[2.7049732E4,2.0755947E3,2.0706787E3,1.00428516E3,1.1592687E3,1.0320793E3,1.503748E3,3.971836E2,2.7196948E2,1.01945044E3,0E0,6.9915784E2,1.3695662E3,1.2492363E3,3.7828625E2,0E0,0E0,0E0,0E0,0E0,0E0,0E0,0E0,0E0,0E0,0E0,0E0,0E0,0E0],"parents":[2147483647,0,0,1,1,2,2,3,3,4,4,5,5,6,6,7,7,8,8,9,9,11,11,12,12,13,13,14,14],"right_children":[2,4,6,8,10,12,14,16,18,20,-1,22,24,26,28,-1,-1,-1,-1,-1,-1,-1,-1,-1,-1,-1,-1,-1,-1],"split_conditions":[4.8714287E1,3.1857143E1,6.2333332E1,4.7E1,6.05E1,3.7E1,7.78E1,3E1,3.2033333E1,3.9E1,9.461118E-1,3.4E1,6.0366665E1,8.7E1,8.8E1,-1.3357362E-1,-5.2629292E-2,7.855794E-1,1.7661242E-1,6.2790974E-3,-9.716087E-2,-2.3018454E-1,6.380495E-2,2.3967564E-1,-2.6671031E-2,2.2969416E-1,7.8254074E-2,4.0547293E-2,-4.467469E-1],"split_indices":[8,8,9,6,9,4,9,5,9,5,0,6,9,6,5,0,0,0,0,0,0,0,0,0,0,0,0,0,0],"split_type":[0,0,0,0,0,0,0,0,0,0,0,0,0,0,0,0,0,0,0,0,0,0,0,0,0,0,0,0,0],"sum_hessian":[4.841E3,2.995E3,1.846E3,2.024E3,9.71E2,8.48E2,9.98E2,2.015E3,9E0,9.69E2,2E0,5.91E2,2.57E2,9.82E2,1.6E1,1.848E3,1.67E2,2E0,7E0,5.5E2,4.19E2,2E1,5.71E2,1.93E2,6.4E1,8.17E2,1.65E2,6E0,1E1],"tree_param":{"num_deleted":"0","num_feature":"12","num_nodes":"29","size_leaf_vector":"1"}},{"base_weights":[2.179913E-2,-1.8521012E0,2.5766146E0,-2.523468E0,-7.360432E-1,1.7414426E0,4.059034E0,-2.9455676E0,-2.3086538E0,-2.3331664E0,-3.9283317E-1,-6.277891E0,1.8563365E0,-3.8525226E0,4.315689E0,-1.4329728E-1,-2.0654058E-1,-7.287126E-2,-1.24726735E-1,7.066404E-2,-1.3690813E-1,5.654741E-2,-5.5282623E-2,3.3381334E-1,-8.1530154E-1,1.08533226E-1,-4.155908E-2,6.176057E-1,-2.5470603E-1,-4.111313E-1,2.2247837E-1],"categories":[],"categories_nodes":[],"categories_segments":[],"categories_sizes":[],"default_left":[0,0,0,0,0,0,0,0,0,0,0,0,0,0,0,0,0,0,0,0,0,0,0,0,0,0,0,0,0,0,0],"id":42,"left_children":[1,3,5,7,9,11,13,15,17,19,21,23,25,27,29,-1,-1,-1,-1,-1,-1,-1,-1,-1,-1,-1,-1,-1,-1,-1,-1],"loss_changes":[2.3477736E4,2.1178682E3,2.5619375E3,1.533291E2,5.823138E2,1.2361575E3,1.5334404E3,4.4029297E1,1.8228125E2,2.8912158E2,9.5383105E2,2.577079E3,1.1092871E3,5.4579456E2,1.2519004E3,0E0,0E0,0E0,0E0,0E0,0E0,0E0,0E0,0E0,0E0,0E0,0E0,0E0,0E0,0E0,0E0],"parents":[2147483647,0,0,1,1,2,2,3,3,4,4,5,5,6,6,7,7,8,8,9,9,10,10,11,11,12,12,13,13,14,14],"right_children":[2,4,6,8,10,12,14,16,18,20,22,24,26,28,30,-1,-1,-1,-1,-1,-1,-1,-1,-1,-1,-1,-1,-1,-1,-1,-1],"split_conditions":[3.89E1,2.41E1,6.9E1,1.8366667E1,7.454546E-2,2E0,5.666667E-2,1.18E-1,9.2E-2,2.1E1,9.7E-2,5.8E1,8.4E1,2.9E1,2.6E1,-1.4329728E-1,-2.0654058E-1,-7.287126E-2,-1.24726735E-1,7.066404E-2,-1.3690813E-1,5.654741E-2,-5.5282623E-2,3.3381334E-1,-8.1530154E-1,1.08533226E-1,-4.155908E-2,6.176057E-1,-2.5470603E-1,-4.111313E-1,2.2247837E-1],"split_indices":[9,9,7,9,10,4,10,10,10,6,10,8,6,6,6,0,0,0,0,0,0,0,0,0,0,0,0,0,0,0,0],"split_type":[0,0,0,0,0,0,0,0,0,0,0,0,0,0,0,0,0,0,0,0,0,0,0,0,0,0,0,0,0,0,0],"sum_hessian":[4.902E3,2.828E3,2.074E3,1.765E3,1.063E3,1.328E3,7.46E2,5.91E2,1.174E3,1.87E2,8.76E2,1.8E1,1.31E3,2.3E1,7.23E2,5.57E2,3.4E1,2.12E2,9.62E2,1.8E1,1.69E2,2.79E2,5.97E2,8E0,1E1,1.173E3,1.37E2,1E0,2.2E1,7E0,7.16E2],"tree_param":{"num_deleted":"0","num_feature":"12","num_nodes":"31","size_leaf_vector":"1"}},{"base_weights":[4.9200606E-2,-1.725176E0,2.6239893E0,-2.2679236E0,-2.7703485E-1,-2.995475E0,2.8463337E0,-2.362494E0,-3.234677E-2,2.7597684E-1,-2.0624273E0,-1.2423215E0,-9.006872E0,-5.8288777E-1,3.1159635E0,-2.5532094E-1,-1.1449268E-1,5.2618127E-2,-4.714783E-1,-1.3162279E-1,4.0004708E-2,-2.5671026E-1,-4.783892E-2,-3.3567664E-1,8.305611E-2,1.4414737E-1,-5.3921884E-1,2.390166E-1,-1.2080773E-1,1.823368E-1,5.692265E-2],"categories":[],"categories_nodes":[],"categories_segments":[],"categories_sizes":[],"default_left":[0,0,0,0,0,0,0,0,0,0,0,0,0,0,0,0,0,0,0,0,0,0,0,0,0,0,0,0,0,0,0],"id":43,"left_children":[1,3,5,7,9,11,13,15,17,19,21,23,25,27,29,-1,-1,-1,-1,-1,-1,-1,-1,-1,-1,-1,-1,-1,-1,-1,-1],"loss_changes":[2.2217277E4,2.2621953E3,2.4874473E3,4.426338E2,7.766207E2,7.897672E2,1.766916E3,3.887412E2,8.8654297E2,9.182465E2,6.26801E2,9.6427313E2,3.9037244E2,1.3880599E3,1.8536562E3,0E0,0E0,0E0,0E0,0E0,0E0,0E0,0E0,0E0,0E0,0E0,0E0,0E0,0E0,0E0,0E0],"parents":[2147483647,0,0,1,1,2,2,3,3,4,4,5,5,6,6,7,7,8,8,9,9,10,10,11,11,12,12,13,13,14,14],"right_children":[2,4,6,8,10,12,14,16,18,20,22,24,26,28,30,-1,-1,-1,-1,-1,-1,-1,-1,-1,-1,-1,-1,-1,-1,-1,-1],"split_conditions":[4.0366665E1,3E1,3.181818E-1,3.62E1,1.20714284E-1,3.0769232E-1,6.818182E-2,2.6923078E-1,7.368421E-1,3.7931034E-1,3.1857143E1,5.3E1,4.442857E1,5.4E1,6.666667E-1,-2.5532094E-1,-1.1449268E-1,5.2618127E-2,-4.714783E-1,-1.3162279E-1,4.0004708E-2,-2.5671026E-1,-4.783892E-2,-3.3567664E-1,8.305611E-2,1.4414737E-1,-5.3921884E-1,2.390166E-1,-1.2080773E-1,1.823368E-1,5.692265E-2],"split_indices":[9,7,11,9,10,11,10,11,11,11,8,7,8,8,11,0,0,0,0,0,0,0,0,0,0,0,0,0,0,0,0],"split_type":[0,0,0,0,0,0,0,0,0,0,0,0,0,0,0,0,0,0,0,0,0,0,0,0,0,0,0,0,0,0,0],"sum_hessian":[4.861E3,2.878E3,1.983E3,2.093E3,7.85E2,7.5E1,1.908E3,2.008E3,8.5E1,6E2,1.85E2,5.9E1,1.6E1,1.39E2,1.769E3,5E1,1.958E3,7.7E1,8E0,9.1E1,5.09E2,4.8E1,1.37E2,2E1,3.9E1,2E0,1.4E1,3.5E1,1.04E2,1.394E3,3.75E2],"tree_param":{"num_deleted":"0","num_feature":"12","num_nodes":"31","size_leaf_vector":"1"}},{"base_weights":[5.390926E-2,-1.5694517E0,2.7230346E0,-2.0483842E0,-3.680869E-1,7.619012E-1,3.2547774E0,-5.427378E0,-1.9658973E0,2.559436E-1,-2.0394533E0,-1.7809847E-1,6.2104874E0,-8.611096E0,3.3599317E0,-1.8926434E-1,-5.2243674E-1,-8.8359445E-2,-1.5830971E-1,5.7175425E-3,7.4812657E-1,-4.197472E-2,-2.4279678E-1,-1.9877763E-1,4.90443E-2,1.0242108E-1,6.227502E-1,1.3714479E-1,-8.025102E-1,1.8605782E-1,2.1001815E-3],"categories":[],"categories_nodes":[],"categories_segments":[],"categories_sizes":[],"default_left":[0,0,0,0,0,0,0,0,0,0,0,0,0,0,0,0,0,0,0,0,0,0,0,0,0,0,0,0,0,0,0],"id":44,"left_children":[1,3,5,7,9,11,13,15,17,19,21,23,25,27,29,-1,-1,-1,-1,-1,-1,-1,-1,-1,-1,-1,-1,-1,-1,-1,-1],"loss_changes":[2.1092762E4,1.740898E3,1.9173486E3,5.924863E2,9.016598E2,2.0190436E3,1.8356709E3,3.809702E2,4.9861328E2,1.3101671E3,7.901443E2,1.4871008E3,1.4819121E3,1.1420503E3,1.720915E3,0E0,0E0,0E0,0E0,0E0,0E0,0E0,0E0,0E0,0E0,0E0,0E0,0E0,0E0,0E0,0E0],"parents":[2147483647,0,0,1,1,2,2,3,3,4,4,5,5,6,6,7,7,8,8,9,9,10,10,11,11,12,12,13,13,14,14],"right_children":[2,4,6,8,10,12,14,16,18,20,22,24,26,28,30,-1,-1,-1,-1,-1,-1,-1,-1,-1,-1,-1,-1,-1,-1,-1,-1],"split_conditions":[4.8714287E1,3.1E1,8.269231E-2,2.6086956E-1,1.1818182E-1,6.764706E-1,2.8E1,3.31E1,7.096774E-1,1.176E-1,4E1,5E1,1E1,5.6866665E1,1.3625E-1,-1.8926434E-1,-5.2243674E-1,-8.8359445E-2,-1.5830971E-1,5.7175425E-3,7.4812657E-1,-4.197472E-2,-2.4279678E-1,-1.9877763E-1,4.90443E-2,1.0242108E-1,6.227502E-1,1.3714479E-1,-8.025102E-1,1.8605782E-1,2.1001815E-3],"split_indices":[8,7,10,11,10,11,6,9,11,10,6,7,0,9,10,0,0,0,0,0,0,0,0,0,0,0,0,0,0,0,0],"split_type":[0,0,0,0,0,0,0,0,0,0,0,0,0,0,0,0,0,0,0,0,0,0,0,0,0,0,0,0,0,0,0],"sum_hessian":[4.866E3,3.026E3,1.84E3,2.163E3,8.63E2,3.93E2,1.447E3,5E1,2.113E3,6.29E2,2.34E2,3.36E2,5.7E1,1.2E1,1.435E3,3.9E1,1.1E1,1.815E3,2.98E2,6.24E2,5E0,1.65E2,6.9E1,7.8E1,2.58E2,3.5E1,2.2E1,5E0,7E0,1.294E3,1.41E2],"tree_param":{"num_deleted":"0","num_feature":"12","num_nodes":"31","size_leaf_vector":"1"}},{"base_weights":[1.696846E-1,-1.4713991E0,2.8592699E0,-2.0531635E0,-5.096456E-1,4.087798E0,2.1999252E0,-2.0299244E0,-5.208813E-1,-3.702652E-1,-5.057314E0,6.2640305E0,2.9569807E0,2.026894E0,8.299461E0,-1.0246628E-1,2.1985443E-1,-1.23919E-2,-2.1241198E-1,-1.1324638E-1,-4.9939725E-1,3.524738E-1,-1.2080902E-1,-4.1638228E-1,1.6940208E-1,1.2150707E-1,-1.6252765E-2,-1.5103878E-1,6.6763204E-1],"categories":[],"categories_nodes":[],"categories_segments":[],"categories_sizes":[],"default_left":[0,0,0,0,0,0,0,0,0,0,0,0,0,0,0,0,0,0,0,0,0,0,0,0,0,0,0,0,0],"id":45,"left_children":[1,3,5,7,9,11,13,15,-1,17,19,21,23,25,27,-1,-1,-1,-1,-1,-1,-1,-1,-1,-1,-1,-1,-1,-1],"loss_changes":[2.1583445E4,1.6981968E3,1.4919805E3,3.466255E2,7.245261E2,1.5712334E3,1.2581123E3,2.4442676E2,0E0,5.2736566E2,4.4549768E2,1.5169551E3,2.1052957E3,1.1161284E3,1.9280408E3,0E0,0E0,0E0,0E0,0E0,0E0,0E0,0E0,0E0,0E0,0E0,0E0,0E0,0E0],"parents":[2147483647,0,0,1,1,2,2,3,3,4,4,5,5,6,6,7,7,9,9,10,10,11,11,12,12,13,13,14,14],"right_children":[2,4,6,8,10,12,14,16,-1,18,20,22,24,26,28,-1,-1,-1,-1,-1,-1,-1,-1,-1,-1,-1,-1,-1,-1],"split_conditions":[5.2833332E1,2.9285715E1,4E0,3.5166668E1,1.5857142E-1,7.142857E1,5.2E1,3.4666668E1,-5.208813E-1,8.5E-1,3E0,8.9E1,5.1E1,4.4E1,4.642857E-1,-1.0246628E-1,2.1985443E-1,-1.23919E-2,-2.1241198E-1,-1.1324638E-1,-4.9939725E-1,3.524738E-1,-1.2080902E-1,-4.1638228E-1,1.6940208E-1,1.2150707E-1,-1.6252765E-2,-1.5103878E-1,6.6763204E-1],"split_indices":[9,8,0,9,10,8,4,9,0,11,1,5,5,4,11,0,0,0,0,0,0,0,0,0,0,0,0,0,0],"split_type":[0,0,0,0,0,0,0,0,0,0,0,0,0,0,0,0,0,0,0,0,0,0,0,0,0,0,0,0,0],"sum_hessian":[4.888E3,3.036E3,1.852E3,1.891E3,1.145E3,6.45E2,1.207E3,1.887E3,4E0,1.112E3,3.3E1,2.19E2,4.26E2,1.175E3,3.2E1,1.882E3,5E0,1.079E3,3.3E1,2.2E1,1.1E1,2.01E2,1.8E1,1.5E1,4.11E2,1.003E3,1.72E2,1E1,2.2E1],"tree_param":{"num_deleted":"0","num_feature":"12","num_nodes":"29","size_leaf_vector":"1"}},{"base_weights":[-5.89571E-3,-1.4640664E0,2.3387086E0,-2.0007255E0,-6.0163844E-1,-5.067045E-1,2.6870127E0,-2.0229099E0,8.770806E0,-2.2101253E-1,-2.315215E0,3.5026124E0,-1.7215178E0,2.9987957E0,-6.589167E-1,-1.7703246E-1,-9.493228E-2,7.167025E-2,5.369403E-1,-2.1791814E-2,3.5575244E-1,-1.8429941E-1,3.0074362E-2,8.585137E-2,6.8578744E-1,-7.219388E-1,-6.487206E-2,1.5405836E-2,1.7175268E-1,3.4301835E-1,-1.07864134E-1],"categories":[],"categories_nodes":[],"categories_segments":[],"categories_sizes":[],"default_left":[0,0,0,0,0,0,0,0,0,0,0,0,0,0,0,0,0,0,0,0,0,0,0,0,0,0,0,0,0,0,0],"id":46,"left_children":[1,3,5,7,9,11,13,15,17,19,21,23,25,27,29,-1,-1,-1,-1,-1,-1,-1,-1,-1,-1,-1,-1,-1,-1,-1,-1],"loss_changes":[1.669075E4,1.3919141E3,1.8566416E3,4.6101172E2,7.534682E2,1.00449695E3,1.742042E3,3.4256543E2,4.2366974E1,1.495535E3,8.418259E2,8.517979E2,8.33375E2,1.7902051E3,1.625929E3,0E0,0E0,0E0,0E0,0E0,0E0,0E0,0E0,0E0,0E0,0E0,0E0,0E0,0E0,0E0,0E0],"parents":[2147483647,0,0,1,1,2,2,3,3,4,4,5,5,6,6,7,7,8,8,9,9,10,10,11,11,12,12,13,13,14,14],"right_children":[2,4,6,8,10,12,14,16,18,20,22,24,26,28,30,-1,-1,-1,-1,-1,-1,-1,-1,-1,-1,-1,-1,-1,-1,-1,-1],"split_conditions":[5.0366665E1,2.6E1,3.9130434E-1,4.34E1,6.969697E-1,1.1E1,7.3333335E-1,3.4375E-1,2.1E1,6.764706E-1,5E0,6E0,5.9E-2,7.705882E-2,5.7433334E1,-1.7703246E-1,-9.493228E-2,7.167025E-2,5.369403E-1,-2.1791814E-2,3.5575244E-1,-1.8429941E-1,3.0074362E-2,8.585137E-2,6.8578744E-1,-7.219388E-1,-6.487206E-2,1.5405836E-2,1.7175268E-1,3.4301835E-1,-1.07864134E-1],"split_indices":[9,5,11,9,11,4,11,11,5,11,1,1,10,10,9,0,0,0,0,0,0,0,0,0,0,0,0,0,0,0,0],"split_type":[0,0,0,0,0,0,0,0,0,0,0,0,0,0,0,0,0,0,0,0,0,0,0,0,0,0,0,0,0,0,0],"sum_hessian":[4.88E3,3.009E3,1.871E3,1.854E3,1.155E3,2.04E2,1.667E3,1.851E3,3E0,9.46E2,2.09E2,4.7E1,1.57E2,1.525E3,1.42E2,1.38E2,1.713E3,1E0,2E0,9.2E2,2.6E1,1.42E2,6.7E1,4.1E1,6E0,4E0,1.53E2,2.13E2,1.312E3,2.3E1,1.19E2],"tree_param":{"num_deleted":"0","num_feature":"12","num_nodes":"31","size_leaf_vector":"1"}},{"base_weights":[-1.094909E-2,-1.6495782E0,1.5605712E0,-2.1253984E0,-1.0957729E0,4.613789E-1,2.9184475E0,-2.1481354E0,4.0612845E0,-9.6351117E-1,-6.101477E0,-2.511159E0,1.0601903E0,4.4724727E0,2.2776294E0,-9.4861284E-2,-1.4079233E-1,8.093991E-1,-1.5086928E-1,2.7413268E-2,-6.918515E-2,-1.7036144E-2,-4.4061613E-1,-1.7570558E-1,6.4742835E-3,-8.9864515E-2,8.143798E-2,2.48964E-1,-3.0991766E-1,-8.646657E-2,1.3554049E-1],"categories":[],"categories_nodes":[],"categories_segments":[],"categories_sizes":[],"default_left":[0,0,0,0,0,0,0,0,0,0,0,0,0,0,0,0,0,0,0,0,0,0,0,0,0,0,0,0,0,0,0],"id":47,"left_children":[1,3,5,7,9,11,13,15,17,19,21,23,25,27,29,-1,-1,-1,-1,-1,-1,-1,-1,-1,-1,-1,-1,-1,-1,-1,-1],"loss_changes":[1.2440495E4,6.2087646E2,3.6793237E3,1.8751318E2,7.1907996E2,2.430568E3,1.0882334E3,2.0692432E2,4.7804987E2,6.79191E2,4.3425977E2,6.069479E2,1.848559E3,1.7668486E3,1.363769E3,0E0,0E0,0E0,0E0,0E0,0E0,0E0,0E0,0E0,0E0,0E0,0E0,0E0,0E0,0E0,0E0],"parents":[2147483647,0,0,1,1,2,2,3,3,4,4,5,5,6,6,7,7,8,8,9,9,10,10,11,11,12,12,13,13,14,14],"right_children":[2,4,6,8,10,12,14,16,18,20,22,24,26,28,30,-1,-1,-1,-1,-1,-1,-1,-1,-1,-1,-1,-1,-1,-1,-1,-1],"split_conditions":[3.5E1,2.2E1,6.1E1,5E1,8.5E-1,4.054054E-1,4E0,1.1E1,1.6E1,3E0,1E1,1E0,7.705882E-2,7.419355E-1,3.846154E-1,-9.4861284E-2,-1.4079233E-1,8.093991E-1,-1.5086928E-1,2.7413268E-2,-6.918515E-2,-1.7036144E-2,-4.4061613E-1,-1.7570558E-1,6.4742835E-3,-8.9864515E-2,8.143798E-2,2.48964E-1,-3.0991766E-1,-8.646657E-2,1.3554049E-1],"split_indices":[7,5,5,6,11,11,3,0,5,0,4,2,10,11,11,0,0,0,0,0,0,0,0,0,0,0,0,0,0,0,0],"split_type":[0,0,0,0,0,0,0,0,0,0,0,0,0,0,0,0,0,0,0,0,0,0,0,0,0,0,0,0,0,0,0],"sum_hessian":[4.829E3,2.364E3,2.465E3,1.27E3,1.094E3,1.363E3,1.102E3,1.266E3,4E0,1.067E3,2.7E1,2.28E2,1.135E3,3.2E2,7.82E2,9.23E2,3.43E2,1E0,3E0,2.32E2,8.35E2,9E0,1.8E1,1.65E2,6.3E1,1.88E2,9.47E2,3.06E2,1.4E1,7.6E1,7.06E2],"tree_param":{"num_deleted":"0","num_feature":"12","num_nodes":"31","size_leaf_vector":"1"}},{"base_weights":[-8.3156545E-3,-1.415484E0,2.2433095E0,-1.8471142E0,-4.096601E-1,3.862191E0,1.4274747E0,-2.1552436E0,-1.4048767E0,-1.5163904E0,3.5329506E-1,4.6314464E0,-1.99636E-1,1.859802E0,-6.479016E-1,-1.0286569E-1,-2.2819436E-1,-6.2851414E-2,-1.7900799E-1,-1.0351117E-1,1.583084E-1,3.128879E-2,-2.0264764E-1,3.8362333E-1,1.8183973E-1,-8.680186E-2,2.8314134E-1,4.9361017E-2,1.6234031E-1,-6.041638E-1,-7.257636E-3],"categories":[],"categories_nodes":[],"categories_segments":[],"categories_sizes":[],"default_left":[0,0,0,0,0,0,0,0,0,0,0,0,0,0,0,0,0,0,0,0,0,0,0,0,0,0,0,0,0,0,0],"id":48,"left_children":[1,3,5,7,9,11,13,15,17,19,21,23,25,27,29,-1,-1,-1,-1,-1,-1,-1,-1,-1,-1,-1,-1,-1,-1,-1,-1],"loss_changes":[1.5306623E4,1.2899536E3,2.448421E3,2.8040576E2,7.554164E2,1.9444141E3,1.111093E3,2.7932568E2,2.7112122E2,9.531294E2,6.3886365E2,1.5540449E3,9.105403E2,1.236116E3,1.2285582E3,0E0,0E0,0E0,0E0,0E0,0E0,0E0,0E0,0E0,0E0,0E0,0E0,0E0,0E0,0E0,0E0],"parents":[2147483647,0,0,1,1,2,2,3,3,4,4,5,5,6,6,7,7,8,8,9,9,10,10,11,11,12,12,13,13,14,14],"right_children":[2,4,6,8,10,12,14,16,18,20,22,24,26,28,30,-1,-1,-1,-1,-1,-1,-1,-1,-1,-1,-1,-1,-1,-1,-1,-1],"split_conditions":[5.0366665E1,3E1,4E0,2.2E1,3E0,9.2E1,7.5E1,2.38E1,4.042857E1,5E1,5.7E1,6.985714E1,8.128571E1,6.1E1,3.5E1,-1.0286569E-1,-2.2819436E-1,-6.2851414E-2,-1.7900799E-1,-1.0351117E-1,1.583084E-1,3.128879E-2,-2.0264764E-1,3.8362333E-1,1.8183973E-1,-8.680186E-2,2.8314134E-1,4.9361017E-2,1.6234031E-1,-6.041638E-1,-7.257636E-3],"split_indices":[9,7,0,5,1,6,5,9,8,6,5,8,8,5,6,0,0,0,0,0,0,0,0,0,0,0,0,0,0,0,0],"split_type":[0,0,0,0,0,0,0,0,0,0,0,0,0,0,0,0,0,0,0,0,0,0,0,0,0,0,0,0,0,0,0],"sum_hessian":[4.829E3,2.972E3,1.857E3,2.079E3,8.93E2,6.21E2,1.236E3,1.223E3,8.56E2,3.64E2,5.29E2,5.22E2,9.9E1,1.023E3,2.13E2,1.177E3,4.6E1,8.03E2,5.3E1,3.26E2,3.8E1,4.99E2,3E1,1.27E2,3.95E2,7.9E1,2E1,6.29E2,3.94E2,8E0,2.05E2],"tree_param":{"num_deleted":"0","num_feature":"12","num_nodes":"31","size_leaf_vector":"1"}},{"base_weights":[-3.990643E-2,-1.5607727E0,1.5175023E0,-4.360803E0,-1.4749905E0,8.1985694E-1,3.074199E0,-3.1745808E0,-7.146944E0,-2.016796E0,-9.761475E-1,-1.3011913E0,1.0723548E0,-2.2887414E0,3.4539595E0,-1.3204263E-1,-2.6027632E-1,-4.1797525E-1,1.4574589E-1,-9.842865E-2,-1.9748037E-1,-4.5430128E-2,-2.914819E-1,-2.7779764E-2,-4.9978158E-1,6.322925E-2,-9.333164E-2,1.6661446E-1,-2.3964813E-1,1.883815E-1,-2.0931394E-1],"categories":[],"categories_nodes":[],"categories_segments":[],"categories_sizes":[],"default_left":[0,0,0,0,0,0,0,0,0,0,0,0,0,0,0,0,0,0,0,0,0,0,0,0,0,0,0,0,0,0,0],"id":49,"left_children":[1,3,5,7,9,11,13,15,17,19,21,23,25,27,29,-1,-1,-1,-1,-1,-1,-1,-1,-1,-1,-1,-1,-1,-1,-1,-1],"loss_changes":[1.1577767E4,5.8756445E2,2.6202236E3,2.185752E2,6.469634E2,8.95245E2,1.5292695E3,4.3703552E1,2.805802E2,9.941211E1,4.0514465E2,1.1483387E3,8.4528394E2,7.1978674E2,1.688541E3,0E0,0E0,0E0,0E0,0E0,0E0,0E0,0E0,0E0,0E0,0E0,0E0,0E0,0E0,0E0,0E0],"parents":[2147483647,0,0,1,1,2,2,3,3,4,4,5,5,6,6,7,7,8,8,9,9,10,10,11,11,12,12,13,13,14,14],"right_children":[2,4,6,8,10,12,14,16,18,20,22,24,26,28,30,-1,-1,-1,-1,-1,-1,-1,-1,-1,-1,-1,-1,-1,-1,-1,-1],"split_conditions":[3.6285713E1,2.6923078E-1,6.9E1,2.4714285E1,2.0714285E1,7.047619E-2,3.5714287E-1,2.6666668E-1,4.8E1,1.2884615E-1,8.5714287E-1,7.8E1,1.425E-1,9.294118E-2,7.647059E-1,-1.3204263E-1,-2.6027632E-1,-4.1797525E-1,1.4574589E-1,-9.842865E-2,-1.9748037E-1,-4.5430128E-2,-2.914819E-1,-2.7779764E-2,-4.9978158E-1,6.322925E-2,-9.333164E-2,1.6661446E-1,-2.3964813E-1,1.883815E-1,-2.0931394E-1],"split_indices":[8,11,7,8,8,10,11,11,6,10,11,6,10,10,11,0,0,0,0,0,0,0,0,0,0,0,0,0,0,0,0],"split_type":[0,0,0,0,0,0,0,0,0,0,0,0,0,0,0,0,0,0,0,0,0,0,0,0,0,0,0,0,0,0,0],"sum_hessian":[4.886E3,2.472E3,2.414E3,7.2E1,2.4E3,1.668E3,7.46E2,5.2E1,2E1,1.149E3,1.251E3,1.77E2,1.491E3,4.9E1,6.97E2,4.3E1,9E0,1.8E1,2E0,1.123E3,2.6E1,1.235E3,1.6E1,1.64E2,1.3E1,1.4E3,9.1E1,1.5E1,3.4E1,6.7E2,2.7E1],"tree_param":{"num_deleted":"0","num_feature":"12","num_nodes":"31","size_leaf_vector":"1"}},{"base_weights":[2.9272097E-1,-1.260509E0,2.1400335E0,-1.6251403E0,-3.265319E-1,1.145575E0,3.135255E0,-1.6397614E0,8.127833E0,-1.2452589E-1,-7.2369027E0,-9.010734E-1,1.5097529E0,4.0975766E0,1.7359331E0,-8.0594525E-2,-3.1270477E-1,7.960048E-1,-1.864173E-1,-6.1357446E-2,1.4080479E-2,1.6342898E-1,-3.962803E-1,-1.1784916E-1,1.3939025E-1,5.5583823E-2,1.8617061E-1,1.6915908E-1,4.590536E-1,5.8203596E-1,7.1967326E-2],"categories":[],"categories_nodes":[],"categories_segments":[],"categories_sizes":[],"default_left":[0,0,0,0,0,0,0,0,0,0,0,0,0,0,0,0,0,0,0,0,0,0,0,0,0,0,0,0,0,0,0],"id":50,"left_children":[1,3,5,7,9,11,13,15,17,19,21,23,25,27,29,-1,-1,-1,-1,-1,-1,-1,-1,-1,-1,-1,-1,-1,-1,-1,-1],"loss_changes":[1.3895854E4,8.954756E2,2.1856387E3,